{"learner":{"attributes":{"best_iteration":"29","best_score":"1.1580272247781442"},"feature_names":["is_home","gw","is_promoted?","is_early_season?","team_elo","team_rolling_summary_goals","team_rolling_summary_pens_made","team_rolling_summary_shots","team_rolling_summary_shots_on_target","team_rolling_summary_touches","team_rolling_summary_xg","team_rolling_summary_npxg","team_rolling_possession_touches_att_pen_area","team_rolling_keeper_psxg","team_rolling_conceded_summary_goals","team_rolling_conceded_summary_pens_made","team_rolling_conceded_summary_shots","team_rolling_conceded_summary_shots_on_target","team_rolling_conceded_summary_touches","team_rolling_conceded_summary_xg","team_rolling_conceded_summary_npxg","team_rolling_conceded_possession_touches_att_pen_area","team_rolling_conceded_keeper_psxg","opp_team_elo","opp_team_rolling_summary_goals","opp_team_rolling_summary_pens_made","opp_team_rolling_summary_shots","opp_team_rolling_summary_shots_on_target","opp_team_rolling_summary_touches","opp_team_rolling_summary_xg","opp_team_rolling_summary_npxg","opp_team_rolling_possession_touches_att_pen_area","opp_team_rolling_keeper_psxg","opp_team_rolling_conceded_summary_goals","opp_team_rolling_conceded_summary_pens_made","opp_team_rolling_conceded_summary_shots","opp_team_rolling_conceded_summary_shots_on_target","opp_team_rolling_conceded_summary_touches","opp_team_rolling_conceded_summary_xg","opp_team_rolling_conceded_summary_npxg","opp_team_rolling_conceded_possession_touches_att_pen_area","opp_team_rolling_conceded_keeper_psxg","season_2018-2019","season_2019-2020","season_2020-2021","season_2021-2022","season_2022-2023","season_2023-2024","season_2024-2025"],"feature_types":["int","int","int","int","float","float","float","float","float","float","float","float","float","float","float","float","float","float","float","float","float","float","float","float","float","float","float","float","float","float","float","float","float","float","float","float","float","float","float","float","float","float","i","i","i","i","i","i","i"],"gradient_booster":{"model":{"gbtree_model_param":{"num_parallel_tree":"1","num_trees":"50"},"iteration_indptr":[0,1,2,3,4,5,6,7,8,9,10,11,12,13,14,15,16,17,18,19,20,21,22,23,24,25,26,27,28,29,30,31,32,33,34,35,36,37,38,39,40,41,42,43,44,45,46,47,48,49,50],"tree_info":[0,0,0,0,0,0,0,0,0,0,0,0,0,0,0,0,0,0,0,0,0,0,0,0,0,0,0,0,0,0,0,0,0,0,0,0,0,0,0,0,0,0,0,0,0,0,0,0,0,0],"trees":[{"base_weights":[-1.9754402E-3,-2.6836944E-1,4.712794E-1,-1.5913324E-1,-5.188155E-1,2.668242E-1,8.9241487E-1,-3.5435468E-1,-3.4455754E-2,-5.854193E-1,-1.11302E-1,-4.8528668E-2,4.1378978E-1,3.8034892E-1,1.1700395E0,-3.951368E-1,1.2541502E-2,3.304578E-2,-2.8775695E-1,-0E0,-4.472471E-2,-3.9809293E-1,3.866936E-3,1.4638714E-1,-2.2333266E-1,-0E0,4.884223E-1,5.514274E-1,-0E0,8.854833E-2,-0E0,-0E0,-3.0758481E-2,-6.1608367E-2,2.3198855E-1,1.5207498E-1,-3.9097384E-1,-4.0019907E-2,-0E0,-1.6569879E-2,2.9684016E-1,-2.3526864E-2,1.727643E-2,-1.8109646E-2,3.2595307E-1,5.827829E-1,1.817883E-1,-0E0,6.43614E-1,-1.0339659E-2,5.4612122E-3,2.8370887E-2,2.4332523E-3,2.907096E-2,-1.0675216E-2,-3.3773914E-2,-0E0,3.477295E-2,-1.1148638E-5,-0E0,5.1756926E-2,4.9714297E-2,9.440642E-3,2.4380451E-2,-2.3959525E-2,5.334367E-2,-0E0],"categories":[],"categories_nodes":[],"categories_segments":[],"categories_sizes":[],"default_left":[0,1,0,0,0,0,1,1,0,0,0,0,0,1,0,0,0,0,0,0,0,0,0,0,0,0,0,0,0,0,0,0,0,0,0,0,0,0,0,0,0,0,0,0,0,1,0,0,1,0,0,0,0,0,0,0,0,0,0,0,0,0,0,0,0,0,0],"id":0,"left_children":[1,3,5,7,9,11,13,15,17,19,21,23,25,27,29,31,-1,33,35,-1,-1,37,-1,39,41,43,45,47,-1,-1,-1,-1,-1,49,51,53,55,-1,-1,-1,57,-1,-1,-1,59,61,63,-1,65,-1,-1,-1,-1,-1,-1,-1,-1,-1,-1,-1,-1,-1,-1,-1,-1,-1,-1],"loss_changes":[5.0039026E2,6.6003006E1,1.1547714E2,4.2000336E1,1.6889175E1,4.722847E1,5.376358E1,1.6300232E1,2.0420694E1,5.588623E0,7.6910825E0,1.1204784E1,2.1393822E1,1.3953835E1,9.684113E0,6.5985413E0,0E0,1.747844E1,1.3001205E1,0E0,0E0,4.7878895E0,0E0,8.74351E0,8.860617E0,9.539545E0,1.233844E1,7.400467E0,0E0,0E0,0E0,0E0,0E0,6.6515665E0,7.156643E0,4.929046E0,5.1656723E0,0E0,0E0,0E0,7.888296E0,0E0,0E0,0E0,7.9923663E0,1.320842E1,1.3030018E1,0E0,4.984356E0,0E0,0E0,0E0,0E0,0E0,0E0,0E0,0E0,0E0,0E0,0E0,0E0,0E0,0E0,0E0,0E0,0E0,0E0],"parents":[2147483647,0,0,1,1,2,2,3,3,4,4,5,5,6,6,7,7,8,8,9,9,10,10,11,11,12,12,13,13,14,14,15,15,17,17,18,18,21,21,23,23,24,24,25,25,26,26,27,27,33,33,34,34,35,35,36,36,40,40,44,44,45,45,46,46,48,48],"right_children":[2,4,6,8,10,12,14,16,18,20,22,24,26,28,30,32,-1,34,36,-1,-1,38,-1,40,42,44,46,48,-1,-1,-1,-1,-1,50,52,54,56,-1,-1,-1,58,-1,-1,-1,60,62,64,-1,66,-1,-1,-1,-1,-1,-1,-1,-1,-1,-1,-1,-1,-1,-1,-1,-1,-1,-1],"split_conditions":[1.7853744E3,1.3655685E1,1.9224667E3,1.093909E0,1.2744436E1,1.1122321E0,1.1919221E1,2.9307579E1,1E0,1.0185636E1,1.1585144E0,1.7E1,3.9554076E0,7.361278E2,4.0808277E0,3.328902E0,1.2541502E-2,2.5500347E1,5.5634705E2,-0E0,-4.472471E-2,1.8861281E0,3.866936E-3,4.16509E0,1.8840076E0,1.4142786E0,1.8736614E3,1.4638902E1,-0E0,8.854833E-2,-0E0,-0E0,-3.0758481E-2,1.3938738E0,1.3359592E0,5.3223124E0,1.2599518E1,-4.0019907E-2,-0E0,-1.6569879E-2,1.2797486E1,-2.3526864E-2,1.727643E-2,-1.8109646E-2,1.1997274E1,1.340499E1,1.9338964E-1,-0E0,4.2493763E0,-1.0339659E-2,5.4612122E-3,2.8370887E-2,2.4332523E-3,2.907096E-2,-1.0675216E-2,-3.3773914E-2,-0E0,3.477295E-2,-1.1148638E-5,-0E0,5.1756926E-2,4.9714297E-2,9.440642E-3,2.4380451E-2,-2.3959525E-2,5.334367E-2,-0E0],"split_indices":[4,26,4,10,35,41,35,40,2,16,5,1,8,28,17,17,0,40,18,0,0,14,0,8,10,41,4,7,0,0,0,0,0,10,10,8,26,0,0,0,16,0,0,0,7,26,6,0,36,0,0,0,0,0,0,0,0,0,0,0,0,0,0,0,0,0,0],"split_type":[0,0,0,0,0,0,0,0,0,0,0,0,0,0,0,0,0,0,0,0,0,0,0,0,0,0,0,0,0,0,0,0,0,0,0,0,0,0,0,0,0,0,0,0,0,0,0,0,0,0,0,0,0,0,0,0,0,0,0,0,0,0,0,0,0,0,0],"sum_hessian":[3.958E3,2.541E3,1.417E3,1.792E3,7.49E2,9.71E2,4.46E2,6.78E2,1.114E3,6.31E2,1.18E2,3.01E2,6.7E2,1.7E2,2.76E2,6.39E2,3.9E1,8.72E2,2.42E2,2.7E1,6.04E2,4.8E1,7E1,1.31E2,1.7E2,1.02E2,5.68E2,1.22E2,4.8E1,2.69E2,7E0,2.7E1,6.12E2,5.8E2,2.92E2,3.7E1,2.05E2,3.8E1,1E1,2.8E1,1.03E2,1.51E2,1.9E1,6.1E1,4.1E1,4.17E2,1.51E2,1.7E1,1.05E2,3.88E2,1.92E2,1.48E2,1.44E2,2.7E1,1E1,1.72E2,3.3E1,7.1E1,3.2E1,2.3E1,1.8E1,3.36E2,8.1E1,1.26E2,2.5E1,9.1E1,1.4E1],"tree_param":{"num_deleted":"0","num_feature":"49","num_nodes":"67","size_leaf_vector":"1"}},{"base_weights":[-1.9186493E-3,-2.4265914E-1,4.2000356E-1,-5.90476E-1,-1.7123164E-1,6.256236E-1,9.843826E-2,-6.2328815E-1,4.692607E-3,-2.929371E-1,-0E0,9.027974E-1,3.0416587E-1,-1.3286562E-1,3.218338E-1,-2.4718331E-2,-5.5864666E-2,-3.6848164E-1,-1.2720703E-1,-6.385167E-2,4.3981862E-1,9.604112E-1,-0E0,8.256068E-2,5.959781E-1,-2.894523E-1,2.7549654E-1,-5.743502E-3,4.5410454E-1,-5.4366475E-1,-2.7273983E-1,-2.4841838E-1,2.9134333E-2,1.2885553E-1,-1.7525297E-1,-1.4138789E-3,6.164393E-1,6.522108E-1,1.2261701E0,-1.9499733E-3,2.58408E-1,6.777655E-1,-0E0,5.5896416E-3,-3.4976253E-1,-6.341212E-3,4.0180516E-1,1.6539961E-2,-1.7130502E-2,6.7985356E-1,1.5509836E-1,-4.254491E-2,-0E0,-1.0656414E-2,-3.0056266E-2,1.3102128E-2,-2.197697E-2,-1.4958322E-2,1.2585186E-2,2.798819E-3,3.972266E-2,-1.5768057E-2,3.0624995E-2,-0E0,5.2864693E-2,5.47217E-2,-0E0,-0E0,9.1938995E-2,3.0827155E-2,-9.301632E-3,5.7047922E-2,-0E0,6.46375E-3,-2.9368881E-2,4.3278582E-2,-0E0,1.491376E-2,6.632028E-2,4.5353904E-2,-0E0],"categories":[],"categories_nodes":[],"categories_segments":[],"categories_sizes":[],"default_left":[0,0,1,0,0,0,0,0,0,1,0,1,0,0,0,0,0,0,0,1,0,0,0,0,0,0,0,0,0,0,1,0,0,0,0,0,0,0,0,0,0,0,0,0,0,0,0,0,0,0,0,0,0,0,0,0,0,0,0,0,0,0,0,0,0,0,0,0,0,0,0,0,0,0,0,0,0,0,0,0,0],"id":1,"left_children":[1,3,5,7,9,11,13,15,-1,17,19,21,23,25,27,-1,-1,29,31,33,35,37,-1,39,41,43,45,47,49,51,53,55,57,59,61,-1,63,65,67,-1,69,71,-1,-1,73,-1,75,-1,-1,77,79,-1,-1,-1,-1,-1,-1,-1,-1,-1,-1,-1,-1,-1,-1,-1,-1,-1,-1,-1,-1,-1,-1,-1,-1,-1,-1,-1,-1,-1,-1],"loss_changes":[4.095932E2,5.977159E1,9.2832184E1,1.1968933E1,4.505227E1,7.0647E1,3.166821E1,8.700806E0,0E0,1.3198631E1,2.5723953E1,2.6437439E1,2.4287308E1,1.9081614E1,1.5537811E1,0E0,0E0,9.199532E0,9.152315E0,1.760931E1,1.2171276E1,2.010202E1,0E0,6.1339564E0,8.134888E0,6.2831383E0,5.190485E0,5.1402044E0,1.0999203E1,6.636223E0,7.040722E0,6.425852E0,6.0362678E0,7.828262E0,1.1802998E1,0E0,7.469578E0,1.1359268E1,5.5131836E0,0E0,8.9348545E0,9.12883E0,0E0,0E0,5.8950386E0,0E0,6.0360804E0,0E0,0E0,6.100109E0,6.5806217E0,0E0,0E0,0E0,0E0,0E0,0E0,0E0,0E0,0E0,0E0,0E0,0E0,0E0,0E0,0E0,0E0,0E0,0E0,0E0,0E0,0E0,0E0,0E0,0E0,0E0,0E0,0E0,0E0,0E0,0E0],"parents":[2147483647,0,0,1,1,2,2,3,3,4,4,5,5,6,6,7,7,9,9,10,10,11,11,12,12,13,13,14,14,17,17,18,18,19,19,20,20,21,21,23,23,24,24,25,25,26,26,27,27,28,28,29,29,30,30,31,31,32,32,33,33,34,34,36,36,37,37,38,38,40,40,41,41,44,44,46,46,49,49,50,50],"right_children":[2,4,6,8,10,12,14,16,-1,18,20,22,24,26,28,-1,-1,30,32,34,36,38,-1,40,42,44,46,48,50,52,54,56,58,60,62,-1,64,66,68,-1,70,72,-1,-1,74,-1,76,-1,-1,78,80,-1,-1,-1,-1,-1,-1,-1,-1,-1,-1,-1,-1,-1,-1,-1,-1,-1,-1,-1,-1,-1,-1,-1,-1,-1,-1,-1,-1,-1,-1],"split_conditions":[1.7853744E3,9.6131647E-1,6.1794037E2,1.7712933E3,1.9917503E1,3.5247524E0,1.0795906E0,5.176856E0,4.692607E-3,1.4338518E0,3.4E1,1.6195234E0,1.4573466E0,3.104331E1,2.408604E1,-2.4718331E-2,-5.5864666E-2,1.6342633E3,1.2635323E-1,1.098058E0,1.3275559E0,3.0200325E1,-0E0,6.6797595E2,1.5253447E1,5E0,5.903986E-1,1.2305132E0,1.0568237E0,1.2395766E0,1.4105378E0,6.296652E-1,3.0365422E0,1.7538541E3,7.1196277E2,-1.4138789E-3,9.427223E-1,2.3719265E0,1.8274895E3,-1.9499733E-3,1.3199893E-1,1E0,-0E0,5.5896416E-3,1.3316176E1,-6.341212E-3,2.3215066E-1,1.6539961E-2,-1.7130502E-2,1.5154396E0,2.6314919E1,-4.254491E-2,-0E0,-1.0656414E-2,-3.0056266E-2,1.3102128E-2,-2.197697E-2,-1.4958322E-2,1.2585186E-2,2.798819E-3,3.972266E-2,-1.5768057E-2,3.0624995E-2,-0E0,5.2864693E-2,5.47217E-2,-0E0,-0E0,9.1938995E-2,3.0827155E-2,-9.301632E-3,5.7047922E-2,-0E0,6.46375E-3,-2.9368881E-2,4.3278582E-2,-0E0,1.491376E-2,6.632028E-2,4.5353904E-2,-0E0],"split_indices":[4,39,28,4,12,17,39,27,0,39,1,29,41,12,12,0,0,4,15,24,38,12,0,9,7,1,20,41,14,5,29,5,27,4,9,0,5,5,4,0,25,43,0,0,21,0,25,0,0,24,12,0,0,0,0,0,0,0,0,0,0,0,0,0,0,0,0,0,0,0,0,0,0,0,0,0,0,0,0,0,0],"split_type":[0,0,0,0,0,0,0,0,0,0,0,0,0,0,0,0,0,0,0,0,0,0,0,0,0,0,0,0,0,0,0,0,0,0,0,0,0,0,0,0,0,0,0,0,0,0,0,0,0,0,0,0,0,0,0,0,0,0,0,0,0,0,0,0,0,0,0,0,0,0,0,0,0,0,0,0,0,0,0,0,0],"sum_hessian":[4.022E3,2.57E3,1.452E3,4.16E2,2.154E3,8.72E2,5.8E2,4.03E2,1.3E1,1.255E3,8.99E2,4.52E2,4.2E2,2.77E2,3.03E2,1.48E2,2.55E2,8.36E2,4.19E2,7.92E2,1.07E2,4.27E2,2.5E1,2.54E2,1.66E2,2.1E2,6.7E1,8E1,2.23E2,2.64E2,5.72E2,2.49E2,1.7E2,2.75E2,5.17E2,2.5E1,8.2E1,2.2E2,2.07E2,1.46E2,1.08E2,1.44E2,2.2E1,1.9E1,1.91E2,9E0,5.8E1,3E1,5E1,1.12E2,1.11E2,2.54E2,1E1,3.19E2,2.53E2,1.4E1,2.35E2,5.1E1,1.19E2,2.42E2,3.3E1,4.98E2,1.9E1,9E0,7.3E1,1.89E2,3.1E1,3E0,2.04E2,8.4E1,2.4E1,1.24E2,2E1,9E0,1.82E2,4E1,1.8E1,4.7E1,6.5E1,1.6E1,9.5E1],"tree_param":{"num_deleted":"0","num_feature":"49","num_nodes":"81","size_leaf_vector":"1"}},{"base_weights":[1.1075056E-2,-2.0073308E-1,4.459351E-1,-9.841037E-2,-4.9768975E-1,5.4066E-1,-1.8360068E-1,-2.388435E-1,5.6952316E-2,-6.107633E-1,-3.0312E-1,4.087281E-1,1.0127604E0,1.1109038E-2,-2.634701E-2,-2.6188085E-2,-2.9250154E-1,3.2987395E-1,-8.703085E-2,-0E0,-6.307958E-1,3.1284043E-3,-3.9457867E-1,5.101619E-1,1.1098544E-1,1.099717E0,6.886362E-3,1.2611479E-1,-1.869297E-1,-3.218724E-1,-0E0,1.3545194E-1,7.8406113E-1,-2.3187388E-1,5.2565645E-2,-1.3517436E-2,-5.0899014E-2,-3.4170724E-3,-3.6698937E-2,5.3836745E-1,-8.428263E-3,-9.687796E-2,4.310514E-1,6.7794967E-1,1.0117747E-1,3.459045E-2,-0E0,-3.1156762E-2,-0E0,3.3812036E-3,-2.5070634E-2,1.8446853E-2,-2.1080656E-2,-0E0,7.344383E-2,-1.4281139E-3,-2.4599407E-2,-4.376301E-3,3.3014156E-2,9.618232E-3,4.44588E-2,-1.9861136E-2,7.5092856E-3,4.504317E-2,-0E0,-0E0,5.5875607E-2],"categories":[],"categories_nodes":[],"categories_segments":[],"categories_sizes":[],"default_left":[0,0,0,0,0,0,0,0,0,0,0,1,0,0,0,0,0,0,0,0,0,0,0,1,0,0,0,0,1,0,0,0,0,0,0,0,0,0,0,0,0,0,0,0,0,0,0,0,0,0,0,0,0,0,0,0,0,0,0,0,0,0,0,0,0,0,0],"id":2,"left_children":[1,3,5,7,9,11,13,15,17,19,21,23,25,-1,-1,27,29,31,33,-1,35,-1,37,39,41,43,-1,45,47,49,-1,51,53,55,57,-1,-1,-1,-1,59,-1,61,63,65,-1,-1,-1,-1,-1,-1,-1,-1,-1,-1,-1,-1,-1,-1,-1,-1,-1,-1,-1,-1,-1,-1,-1],"loss_changes":[3.7208984E2,7.901136E1,8.15676E1,4.526799E1,9.197678E0,6.2240295E1,1.1480287E1,1.0885227E1,3.8949886E1,6.519104E0,1.0630053E1,2.4816284E1,1.296582E1,0E0,0E0,6.484871E0,7.8443146E0,2.5246952E1,1.3505987E1,0E0,5.3902435E0,0E0,5.7322197E0,1.4418991E1,1.9101742E1,6.887787E0,0E0,6.060122E0,6.2669415E0,6.4907684E0,0E0,1.2918751E1,1.645803E1,5.3315983E0,1.560347E1,0E0,0E0,0E0,0E0,1.3187317E1,0E0,6.3271575E0,1.0842154E1,7.0695343E0,0E0,0E0,0E0,0E0,0E0,0E0,0E0,0E0,0E0,0E0,0E0,0E0,0E0,0E0,0E0,0E0,0E0,0E0,0E0,0E0,0E0,0E0,0E0],"parents":[2147483647,0,0,1,1,2,2,3,3,4,4,5,5,6,6,7,7,8,8,9,9,10,10,11,11,12,12,15,15,16,16,17,17,18,18,20,20,22,22,23,23,24,24,25,25,27,27,28,28,29,29,31,31,32,32,33,33,34,34,39,39,41,41,42,42,43,43],"right_children":[2,4,6,8,10,12,14,16,18,20,22,24,26,-1,-1,28,30,32,34,-1,36,-1,38,40,42,44,-1,46,48,50,-1,52,54,56,58,-1,-1,-1,-1,60,-1,62,64,66,-1,-1,-1,-1,-1,-1,-1,-1,-1,-1,-1,-1,-1,-1,-1,-1,-1,-1,-1,-1,-1,-1,-1],"split_conditions":[2.3688042E1,1.8459526E3,1.9118574E3,1.942038E1,1.1326066E0,1.7173403E1,1.50844555E1,1.6409634E3,1.6778633E3,8.7174064E-1,1.904472E1,1.2925409E1,5.493408E2,1.1109038E-2,-2.634701E-2,6.591091E2,1.4866917E0,6.388388E2,1.3125175E0,-0E0,1.3188321E1,3.1284043E-3,1.7830554E0,1.4934713E0,1.5953652E0,1.2826448E1,6.886362E-3,4.30948E0,1.3154236E1,8.128393E-1,-0E0,1.5482845E0,5.524103E2,1.262997E0,1.629851E0,-1.3517436E-2,-5.0899014E-2,-3.4170724E-3,-3.6698937E-2,9.416165E0,-8.428263E-3,5.1143384E0,2.1989672E-1,1.01378E1,1.0117747E-1,3.459045E-2,-0E0,-3.1156762E-2,-0E0,3.3812036E-3,-2.5070634E-2,1.8446853E-2,-2.1080656E-2,-0E0,7.344383E-2,-1.4281139E-3,-2.4599407E-2,-4.376301E-3,3.3014156E-2,9.618232E-3,4.44588E-2,-1.9861136E-2,7.5092856E-3,4.504317E-2,-0E0,-0E0,5.5875607E-2],"split_indices":[12,23,23,12,11,7,21,23,23,20,21,26,18,0,0,18,5,9,5,0,26,0,24,30,32,35,0,36,35,14,0,5,18,22,38,0,0,0,0,26,0,8,25,26,0,0,0,0,0,0,0,0,0,0,0,0,0,0,0,0,0,0,0,0,0,0,0],"split_type":[0,0,0,0,0,0,0,0,0,0,0,0,0,0,0,0,0,0,0,0,0,0,0,0,0,0,0,0,0,0,0,0,0,0,0,0,0,0,0,0,0,0,0,0,0,0,0,0,0,0,0,0,0,0,0,0,0,0,0,0,0,0,0,0,0,0,0],"sum_hessian":[4.01E3,2.693E3,1.317E3,2.023E3,6.7E2,1.152E3,1.65E2,1.075E3,9.48E2,3.97E2,2.73E2,9.21E2,2.31E2,4.8E1,1.17E2,2.36E2,8.39E2,3.34E2,6.14E2,9E0,3.88E2,4.8E1,2.25E2,6.71E2,2.5E2,2.05E2,2.6E1,1.08E2,1.28E2,7.67E2,7.2E1,2.49E2,8.5E1,3.14E2,3E2,5.8E1,3.3E2,6.4E1,1.61E2,6.5E2,2.1E1,1.47E2,1.03E2,9.9E1,1.06E2,2.7E1,8.1E1,5.3E1,7.5E1,2.3E1,7.44E2,2.07E2,4.2E1,1.9E1,6.6E1,1.19E2,1.95E2,2.31E2,6.9E1,1.01E2,5.49E2,8.9E1,5.8E1,7.6E1,2.7E1,9E0,9E1],"tree_param":{"num_deleted":"0","num_feature":"49","num_nodes":"67","size_leaf_vector":"1"}},{"base_weights":[-0E0,-1.4783847E-1,4.81403E-1,-0E0,-3.000952E-1,6.993569E-1,4.9188238E-2,-1.5194517E-1,1.8974398E-1,-4.330716E-1,-1.4272572E-1,1.2086576E0,5.749299E-1,2.7954695E-1,-1.8354833E-1,-2.0107946E-1,1.3554078E-1,2.188481E-2,3.6632672E-1,-0E0,-4.5774937E-1,-3.592772E-1,-5.4527957E-2,-0E0,1.3083837E0,3.6197704E-1,7.764138E-1,3.647534E-2,6.748607E-1,1.3706608E-3,-3.3510718E-1,-3.5265395E-1,-1.062982E-1,-0E0,3.361416E-2,-9.754173E-3,1.6366734E-1,1.4974467E-1,5.8448565E-1,-3.6593176E-2,-1.409866E-1,-0E0,-3.0553868E-2,-1.9914204E-1,2.252842E-2,5.1560886E-3,1.4207425E0,4.7150022E-1,5.259425E-4,8.261051E-1,-0E0,4.1040653E-1,-5.217551E-3,-0E0,9.3201536E-1,9.800559E-5,-3.3651344E-2,-2.8856719E-2,5.770911E-3,2.595666E-4,-1.6036285E-2,1.3807328E-2,-2.9437091E-2,2.2377798E-2,-9.534558E-3,4.3670863E-2,-0E0,1.6031235E-2,6.1622526E-2,9.854735E-4,-2.7485436E-2,-2.2596786E-2,2.9617453E-3,-2.5117109E-2,5.517287E-3,-0E0,1.1286721E-1,4.035985E-2,-0E0,7.397985E-2,2.8629223E-2,-1.0149542E-3,4.616617E-2,7.812401E-2,-0E0],"categories":[],"categories_nodes":[],"categories_segments":[],"categories_sizes":[],"default_left":[0,0,0,0,0,0,0,1,0,0,0,0,0,0,0,0,0,0,0,0,0,0,0,0,1,0,1,0,0,0,0,0,0,0,0,0,0,0,0,0,0,0,0,0,0,0,0,0,0,1,0,0,0,0,0,0,0,0,0,0,0,0,0,0,0,0,0,0,0,0,0,0,0,0,0,0,0,0,0,0,0,0,0,0,0],"id":3,"left_children":[1,3,5,7,9,11,13,15,17,19,21,23,25,27,29,31,33,35,37,-1,39,41,43,-1,45,47,49,51,53,-1,55,57,59,61,-1,-1,63,65,67,-1,69,-1,-1,71,73,-1,75,77,-1,79,-1,81,-1,-1,83,-1,-1,-1,-1,-1,-1,-1,-1,-1,-1,-1,-1,-1,-1,-1,-1,-1,-1,-1,-1,-1,-1,-1,-1,-1,-1,-1,-1,-1,-1],"loss_changes":[2.8565784E2,7.032651E1,8.501669E1,4.5594597E1,2.8920883E1,2.4926514E1,1.8697805E1,1.2815363E1,1.9221302E1,1.068457E1,1.1928368E1,1.4648819E1,1.4745972E1,1.3922315E1,6.3971367E0,8.526182E0,6.329995E0,8.766729E0,1.1634277E1,0E0,5.8448334E0,5.486006E0,6.888303E0,0E0,6.2680206E0,8.768532E0,9.599167E0,6.904678E0,1.395376E1,0E0,6.2900925E0,6.108696E0,7.0215983E0,7.7153864E0,0E0,0E0,1.0113006E1,1.4335036E1,7.655781E0,0E0,5.497486E0,0E0,0E0,6.666484E0,5.5478816E0,0E0,9.0256195E0,7.3209E0,0E0,8.340378E0,0E0,6.3571043E0,0E0,0E0,7.5899467E0,0E0,0E0,0E0,0E0,0E0,0E0,0E0,0E0,0E0,0E0,0E0,0E0,0E0,0E0,0E0,0E0,0E0,0E0,0E0,0E0,0E0,0E0,0E0,0E0,0E0,0E0,0E0,0E0,0E0,0E0],"parents":[2147483647,0,0,1,1,2,2,3,3,4,4,5,5,6,6,7,7,8,8,9,9,10,10,11,11,12,12,13,13,14,14,15,15,16,16,17,17,18,18,20,20,21,21,22,22,24,24,25,25,26,26,27,27,28,28,30,30,31,31,32,32,33,33,36,36,37,37,38,38,40,40,43,43,44,44,46,46,47,47,49,49,51,51,54,54],"right_children":[2,4,6,8,10,12,14,16,18,20,22,24,26,28,30,32,34,36,38,-1,40,42,44,-1,46,48,50,52,54,-1,56,58,60,62,-1,-1,64,66,68,-1,70,-1,-1,72,74,-1,76,78,-1,80,-1,82,-1,-1,84,-1,-1,-1,-1,-1,-1,-1,-1,-1,-1,-1,-1,-1,-1,-1,-1,-1,-1,-1,-1,-1,-1,-1,-1,-1,-1,-1,-1,-1,-1],"split_conditions":[2.5761951E1,1.7268645E3,1.7932233E3,1.2395766E0,1.239383E0,7.47385E-1,1.9887507E0,1.6784818E0,6.2533154E2,5.3138416E2,9.213488E-1,1.7575754E0,1E0,1.5790559E0,1.18840165E-1,9.8963773E-1,1.9581813E0,1.393249E0,1.4463595E0,-0E0,1.393249E0,1.2975875E0,1.3371992E0,-0E0,1.0917952E0,6.8542535E2,2.1274315E-1,1.3E1,6.829299E2,1.3706608E-3,1.4181604E1,2.9045966E-1,1.6677445E3,1.7187413E0,3.361416E-2,-9.754173E-3,1.7250575E0,1.0376517E0,1E0,-3.6593176E-2,1.5977676E0,-0E0,-3.0553868E-2,3E1,9.666841E-1,5.1560886E-3,4.2450674E2,1.6031629E-1,5.259425E-4,5.815614E2,-0E0,1.6604198E0,-5.217551E-3,-0E0,1.1361675E1,9.800559E-5,-3.3651344E-2,-2.8856719E-2,5.770911E-3,2.595666E-4,-1.6036285E-2,1.3807328E-2,-2.9437091E-2,2.2377798E-2,-9.534558E-3,4.3670863E-2,-0E0,1.6031235E-2,6.1622526E-2,9.854735E-4,-2.7485436E-2,-2.2596786E-2,2.9617453E-3,-2.5117109E-2,5.517287E-3,-0E0,1.1286721E-1,4.035985E-2,-0E0,7.397985E-2,2.8629223E-2,-1.0149542E-3,4.616617E-2,7.812401E-2,-0E0],"split_indices":[12,23,23,5,10,19,24,39,9,28,41,10,0,30,25,10,41,39,41,0,39,10,5,0,39,37,25,1,9,0,21,15,23,41,0,0,14,19,0,0,19,0,0,1,20,0,18,25,0,28,0,5,0,0,16,0,0,0,0,0,0,0,0,0,0,0,0,0,0,0,0,0,0,0,0,0,0,0,0,0,0,0,0,0,0],"split_type":[0,0,0,0,0,0,0,0,0,0,0,0,0,0,0,0,0,0,0,0,0,0,0,0,0,0,0,0,0,0,0,0,0,0,0,0,0,0,0,0,0,0,0,0,0,0,0,0,0,0,0,0,0,0,0,0,0,0,0,0,0,0,0,0,0,0,0,0,0,0,0,0,0,0,0,0,0,0,0,0,0,0,0,0,0],"sum_hessian":[4.014E3,3.082E3,9.32E2,1.56E3,1.522E3,6.09E2,3.23E2,8.6E2,7E2,8.01E2,7.21E2,9.7E1,5.12E2,1.71E2,1.52E2,7.5E2,1.1E2,3.77E2,3.23E2,3.4E1,7.67E2,1.86E2,5.35E2,7E0,9E1,2.72E2,2.4E2,1.19E2,5.2E1,5.6E1,9.6E1,2.61E2,4.89E2,7.8E1,3.2E1,1.66E2,2.11E2,1.8E2,1.43E2,6.68E2,9.9E1,1.6E1,1.7E2,2.01E2,3.34E2,1.2E1,7.8E1,1.96E2,7.6E1,2.25E2,1.5E1,3E1,8.9E1,1.3E1,3.9E1,1.8E1,7.8E1,2.5E2,1.1E1,2.3E2,2.59E2,5.2E1,2.6E1,1.53E2,5.8E1,4.4E1,1.36E2,7.2E1,7.1E1,5.3E1,4.6E1,1.5E2,5.1E1,2.5E1,3.09E2,8E0,7E1,1.68E2,2.8E1,1.45E2,8E1,6E0,2.4E1,3.5E1,4E0],"tree_param":{"num_deleted":"0","num_feature":"49","num_nodes":"85","size_leaf_vector":"1"}},{"base_weights":[-8.7921025E-4,-1.7092788E-1,3.8139027E-1,-3.976625E-1,-6.554864E-2,5.056128E-1,-1.3213593E-1,-0E0,-4.3616062E-1,-2.1634601E-1,4.790089E-2,2.7183342E-1,7.28169E-1,-3.3384266E-1,1.01477824E-1,-5.0648093E-1,-1.2952426E-2,2.494633E-1,-2.5682932E-1,-7.144088E-2,1.7524762E-1,5.7685304E-1,1.3667734E-1,1.3237199E0,5.6373525E-1,-3.5279796E-2,-0E0,2.126913E-1,-2.2664795E-2,-0E0,-5.3349775E-1,-0E0,3.9196268E-2,-3.2436085E-1,-1.0346902E-1,-1.3900074E-1,1.8310767E-1,2.2142118E-1,-5.152338E-3,2.2463475E-1,1.0364478E0,1.1041314E-2,3.5609905E-2,1.4459199E0,-0E0,7.1011406E-1,5.6646388E-2,4.1153994E-1,-1.1073299E-3,-4.3177232E-2,-1.3482625E-2,-2.9446779E-2,-8.578547E-3,1.3586023E-2,-1.4265895E-2,-1.502682E-2,1.7093709E-2,4.6403255E-2,-2.1648377E-3,1.9745156E-2,-0E0,4.910984E-2,-0E0,8.644544E-2,-0E0,3.8138594E-2,-3.6718731E-3,1.1134344E-1,-0E0,-0E0,5.480411E-2,-1.2207683E-2,1.9786378E-2,4.0415168E-2,-0E0],"categories":[],"categories_nodes":[],"categories_segments":[],"categories_sizes":[],"default_left":[0,1,0,0,0,0,0,0,0,0,0,0,0,0,0,0,0,0,0,0,0,1,0,0,0,0,0,0,0,0,1,0,0,0,0,0,0,0,0,1,0,0,0,0,0,0,0,0,0,0,0,0,0,0,0,0,0,0,0,0,0,0,0,0,0,0,0,0,0,0,0,0,0,0,0],"id":4,"left_children":[1,3,5,7,9,11,13,-1,15,17,19,21,23,25,27,29,-1,31,33,35,37,39,41,43,45,-1,-1,47,-1,-1,49,-1,-1,51,53,55,57,59,-1,61,63,65,-1,67,-1,69,71,73,-1,-1,-1,-1,-1,-1,-1,-1,-1,-1,-1,-1,-1,-1,-1,-1,-1,-1,-1,-1,-1,-1,-1,-1,-1,-1,-1],"loss_changes":[2.5857724E2,6.391581E1,8.0162094E1,1.2709412E1,3.3622753E1,4.5375977E1,1.2559648E1,0E0,1.0558014E1,1.6476543E1,1.7050797E1,1.706025E1,3.311728E1,6.554693E0,5.040078E0,8.606888E0,0E0,4.8370805E0,5.9463005E0,9.461419E0,6.9811916E0,1.5445488E1,1.4004526E1,1.0940277E1,2.6520584E1,0E0,0E0,6.2586784E0,0E0,0E0,5.8977814E0,0E0,0E0,5.3841133E0,7.435907E0,1.1111866E1,1.2771704E1,5.414524E0,0E0,9.692165E0,7.8177032E0,1.1310969E1,0E0,8.602707E0,0E0,6.7159576E0,5.930138E0,5.222456E0,0E0,0E0,0E0,0E0,0E0,0E0,0E0,0E0,0E0,0E0,0E0,0E0,0E0,0E0,0E0,0E0,0E0,0E0,0E0,0E0,0E0,0E0,0E0,0E0,0E0,0E0,0E0],"parents":[2147483647,0,0,1,1,2,2,3,3,4,4,5,5,6,6,8,8,9,9,10,10,11,11,12,12,13,13,14,14,15,15,17,17,18,18,19,19,20,20,21,21,22,22,23,23,24,24,27,27,30,30,33,33,34,34,35,35,36,36,37,37,39,39,40,40,41,41,43,43,45,45,46,46,47,47],"right_children":[2,4,6,8,10,12,14,-1,16,18,20,22,24,26,28,30,-1,32,34,36,38,40,42,44,46,-1,-1,48,-1,-1,50,-1,-1,52,54,56,58,60,-1,62,64,66,-1,68,-1,70,72,74,-1,-1,-1,-1,-1,-1,-1,-1,-1,-1,-1,-1,-1,-1,-1,-1,-1,-1,-1,-1,-1,-1,-1,-1,-1,-1,-1],"split_conditions":[1.485858E0,3.6602676E0,1.8562667E3,9.876096E-1,1.0361055E0,1E0,9.79883E-1,-0E0,4.091913E0,1.6058514E3,1E0,1.661627E3,1.3316176E1,1.6419024E1,1.463285E0,8.5699403E-1,-1.2952426E-2,7.425498E-2,1.4799429E0,1.3581911E1,1E0,4.902541E0,5.982342E0,7.012406E2,1.5216862E-1,-3.5279796E-2,-0E0,1.1562566E-1,-2.2664795E-2,-0E0,1.1495075E0,-0E0,3.9196268E-2,2.5962872E1,7.2662395E-1,1.806145E0,1.2952712E0,1.9916154E-1,-5.152338E-3,1.0228429E0,1.6478502E3,5.450218E2,3.5609905E-2,2.8091452E-1,-0E0,2.2168665E0,1.6E1,1.0797755E-1,-1.1073299E-3,-4.3177232E-2,-1.3482625E-2,-2.9446779E-2,-8.578547E-3,1.3586023E-2,-1.4265895E-2,-1.502682E-2,1.7093709E-2,4.6403255E-2,-2.1648377E-3,1.9745156E-2,-0E0,4.910984E-2,-0E0,8.644544E-2,-0E0,3.8138594E-2,-3.6718731E-3,1.1134344E-1,-0E0,-0E0,5.480411E-2,-1.2207683E-2,1.9786378E-2,4.0415168E-2,-0E0],"split_indices":[13,36,23,24,13,0,41,0,8,23,0,23,21,7,33,22,0,6,41,7,2,36,8,37,15,0,0,25,0,0,39,0,0,21,5,38,41,34,0,41,23,37,0,25,0,17,1,34,0,0,0,0,0,0,0,0,0,0,0,0,0,0,0,0,0,0,0,0,0,0,0,0,0,0,0],"split_type":[0,0,0,0,0,0,0,0,0,0,0,0,0,0,0,0,0,0,0,0,0,0,0,0,0,0,0,0,0,0,0,0,0,0,0,0,0,0,0,0,0,0,0,0,0,0,0,0,0,0,0,0,0,0,0,0,0,0,0,0,0,0,0,0,0,0,0,0,0,0,0,0,0,0,0],"sum_hessian":[3.974E3,2.762E3,1.212E3,8.55E2,1.907E3,9.83E2,2.29E2,7.9E1,7.76E2,8.32E2,1.075E3,4.99E2,4.84E2,1.31E2,9.8E1,5.91E2,1.85E2,5.4E1,7.78E2,5.39E2,5.36E2,1.34E2,3.65E2,8.5E1,3.99E2,8.8E1,4.3E1,8.9E1,9E0,2.9E1,5.62E2,3.2E1,2.2E1,5.13E2,2.65E2,4.43E2,9.6E1,4.67E2,6.9E1,8.9E1,4.5E1,2.84E2,8.1E1,7.5E1,1E1,3E2,9.9E1,5.4E1,3.5E1,4.74E2,8.8E1,3.56E2,1.57E2,4.9E1,2.16E2,3.91E2,5.2E1,3.2E1,6.4E1,3.93E2,7.4E1,2.4E1,6.5E1,3.9E1,6E0,3.1E1,2.53E2,7.2E1,3E0,1.4E1,2.86E2,3.9E1,6E1,4.4E1,1E1],"tree_param":{"num_deleted":"0","num_feature":"49","num_nodes":"75","size_leaf_vector":"1"}},{"base_weights":[-6.3480698E-3,-1.6806349E-1,3.6185542E-1,-3.1671047E-1,-2.8292015E-2,5.772646E-1,4.718429E-2,-4.3616134E-1,-1.7320561E-1,-1.8460731E-1,9.6191056E-2,2.328868E-1,7.1900564E-1,-1.3402241E-1,3.2539004E-1,-0E0,-3.448856E-2,-3.638666E-1,-3.4392677E-2,-2.7007014E-1,-0E0,-3.2477573E-2,2.3620392E-1,2.7452108E-2,6.3781184E-1,4.6057966E-1,9.355872E-1,-2.572187E-1,1.1205226E-1,5.4449487E-1,-0E0,-0E0,-3.0132586E-2,-2.6562014E-1,1.5358993E-1,1.8146773E-3,-2.2015505E-2,4.610869E-2,-6.5124934E-3,2.5194943E-1,-1.049314E-1,7.185719E-2,4.4425318E-1,-7.178963E-3,2.1457663E-1,7.567526E-1,-0E0,5.3836083E-1,-0E0,-0E0,9.8802793E-1,-0E0,-3.570753E-1,-7.820054E-3,3.5678912E-2,4.7921788E-2,-0E0,-0E0,-2.9747505E-2,2.6328398E-2,-0E0,-0E0,5.2431926E-2,1.756542E-2,-1.321635E-2,-7.795687E-3,1.6283087E-2,4.5634218E-2,-0E0,2.4981758E-2,-1.4616453E-2,6.553826E-2,-0E0,-0E0,4.633471E-2,-0E0,7.4600525E-2,-0E0,-3.394477E-2],"categories":[],"categories_nodes":[],"categories_segments":[],"categories_sizes":[],"default_left":[0,1,0,0,0,0,0,0,0,0,0,0,0,0,0,0,0,0,0,0,0,0,0,0,0,0,0,0,0,0,0,0,0,0,1,0,0,0,0,0,0,0,0,0,0,0,0,0,0,0,0,0,0,0,0,0,0,0,0,0,0,0,0,0,0,0,0,0,0,0,0,0,0,0,0,0,0,0,0],"id":5,"left_children":[1,3,5,7,9,11,13,15,17,19,21,23,25,27,29,-1,-1,31,33,35,37,39,41,43,45,47,49,51,53,55,-1,-1,-1,57,59,-1,-1,-1,-1,61,63,65,67,-1,69,71,-1,73,-1,-1,75,-1,77,-1,-1,-1,-1,-1,-1,-1,-1,-1,-1,-1,-1,-1,-1,-1,-1,-1,-1,-1,-1,-1,-1,-1,-1,-1,-1],"loss_changes":[2.3882779E2,5.6666656E1,7.968082E1,1.9629501E1,2.9179716E1,2.91548E1,2.7163664E1,9.811554E0,1.5111275E1,1.017704E1,1.55506735E1,1.6110092E1,1.7478104E1,1.0247019E1,1.6389227E1,0E0,0E0,5.748928E0,1.804226E1,5.033684E0,1.2194155E1,8.100593E0,1.1268606E1,4.679515E0,7.618311E0,1.0602814E1,1.6442917E1,5.9783773E0,9.996813E0,8.479481E0,0E0,0E0,0E0,6.1742477E0,7.827953E0,0E0,0E0,0E0,0E0,6.439535E0,8.965047E0,7.2938805E0,1.1765247E1,0E0,5.577894E0,8.064743E0,0E0,9.206993E0,0E0,0E0,6.6833344E0,0E0,6.5345154E0,0E0,0E0,0E0,0E0,0E0,0E0,0E0,0E0,0E0,0E0,0E0,0E0,0E0,0E0,0E0,0E0,0E0,0E0,0E0,0E0,0E0,0E0,0E0,0E0,0E0,0E0],"parents":[2147483647,0,0,1,1,2,2,3,3,4,4,5,5,6,6,7,7,8,8,9,9,10,10,11,11,12,12,13,13,14,14,17,17,18,18,19,19,20,20,21,21,22,22,23,23,24,24,25,25,26,26,27,27,28,28,29,29,33,33,34,34,39,39,40,40,41,41,42,42,44,44,45,45,47,47,50,50,52,52],"right_children":[2,4,6,8,10,12,14,16,18,20,22,24,26,28,30,-1,-1,32,34,36,38,40,42,44,46,48,50,52,54,56,-1,-1,-1,58,60,-1,-1,-1,-1,62,64,66,68,-1,70,72,-1,74,-1,-1,76,-1,78,-1,-1,-1,-1,-1,-1,-1,-1,-1,-1,-1,-1,-1,-1,-1,-1,-1,-1,-1,-1,-1,-1,-1,-1,-1,-1],"split_conditions":[1.485858E0,1.2513079E1,1.7549519E3,1.1376681E1,1.054688E0,6.78569E2,2.9944448E1,1.01391E0,1.0612047E0,1.9263468E1,1E0,5.0672464E0,1E0,4.1412272E0,1.9363219E0,-0E0,-3.448856E-2,1.6701407E3,1E0,4.6601923E2,1.614229E3,1.17485E0,5.984158E2,1.1429676E1,6.692078E2,1.4663621E0,9.34969E-1,9.2704105E-1,1E0,1.63134E0,-0E0,-0E0,-3.0132586E-2,1.2773833E0,1.2308626E0,1.8146773E-3,-2.2015505E-2,4.610869E-2,-6.5124934E-3,1.3112854E1,1.6186655E3,1.4169846E0,1.7409739E3,-7.178963E-3,4.8901668E0,1.8242935E0,-0E0,9.29534E0,-0E0,-0E0,8.867001E-1,-0E0,1.2269473E1,-7.820054E-3,3.5678912E-2,4.7921788E-2,-0E0,-0E0,-2.9747505E-2,2.6328398E-2,-0E0,-0E0,5.2431926E-2,1.756542E-2,-1.321635E-2,-7.795687E-3,1.6283087E-2,4.5634218E-2,-0E0,2.4981758E-2,-1.4616453E-2,6.553826E-2,-0E0,-0E0,4.633471E-2,-0E0,7.4600525E-2,-0E0,-3.394477E-2],"split_indices":[13,35,23,7,13,9,12,29,38,12,0,36,0,36,24,0,0,23,0,9,23,41,9,26,9,24,39,22,0,33,0,0,0,19,38,0,0,0,0,7,23,39,23,0,36,13,0,26,0,0,41,0,7,0,0,0,0,0,0,0,0,0,0,0,0,0,0,0,0,0,0,0,0,0,0,0,0,0,0],"split_type":[0,0,0,0,0,0,0,0,0,0,0,0,0,0,0,0,0,0,0,0,0,0,0,0,0,0,0,0,0,0,0,0,0,0,0,0,0,0,0,0,0,0,0,0,0,0,0,0,0,0,0,0,0,0,0,0,0,0,0,0,0,0,0,0,0,0,0,0,0,0,0,0,0,0,0,0,0,0,0],"sum_hessian":[4.007E3,2.796E3,1.211E3,1.334E3,1.462E3,7.06E2,5.05E2,7.01E2,6.33E2,6.62E2,8E2,2.22E2,4.84E2,2.99E2,2.06E2,4.6E1,6.55E2,2.47E2,3.86E2,4.44E2,2.18E2,4.04E2,3.96E2,1.61E2,6.1E1,2.43E2,2.41E2,2.11E2,8.8E1,1.23E2,8.3E1,1.8E1,2.29E2,1.82E2,2.04E2,2.5E1,4.19E2,1.8E1,2E2,6.5E1,3.39E2,2.4E2,1.56E2,8.5E1,7.6E1,5.4E1,7E0,2.12E2,3.1E1,9E0,2.32E2,5.9E1,1.52E2,5.2E1,3.6E1,1.04E2,1.9E1,7E1,1.12E2,9.2E1,1.12E2,5.2E1,1.3E1,4.6E1,2.93E2,9.7E1,1.43E2,1.07E2,4.9E1,6.8E1,8E0,4.7E1,7E0,3.5E1,1.77E2,4E0,2.28E2,3.3E1,1.19E2],"tree_param":{"num_deleted":"0","num_feature":"49","num_nodes":"79","size_leaf_vector":"1"}},{"base_weights":[1.3723232E-2,-1.4406745E-1,3.730223E-1,-7.185512E-2,-3.5838494E-1,4.925013E-1,-8.969867E-2,-1.8401359E-1,2.8732486E-2,-0E0,-3.9450514E-1,8.9348936E-1,3.5585177E-1,-2.60328E-1,2.0974705E-1,-2.0522493E-1,2.0556255E-1,6.135574E-1,-1.1174388E-2,-3.3109214E-2,-4.4149365E-3,1.0522404E-1,9.653441E-1,4.897679E-1,1.44816E-1,-0E0,-2.6770383E-2,-9.79779E-3,4.1224793E-1,-1.380829E-1,-2.8315946E-2,-6.7605986E-3,4.1378446E-2,-0E0,5.543919E-2,1.2349471E-1,-1.1267409E-1,3.2385375E-2,-1.1110975E-2,-0E0,1.0143759E0,1.5151311E-1,6.743996E-1,-1.9958062E-2,4.3140155E-1,-0E0,4.0051177E-2,-1.28996475E-2,7.724842E-3,-7.0351968E-3,1.7955843E-2,-1.0919138E-2,2.6546786E-2,9.660762E-2,4.2342346E-2,-9.537624E-5,3.4239795E-2,1.4002155E-2,6.0769495E-2,1.3502364E-2,-1.6974706E-2,-0E0,4.6489634E-2],"categories":[],"categories_nodes":[],"categories_segments":[],"categories_sizes":[],"default_left":[0,0,0,0,0,0,0,1,0,0,0,0,0,0,0,0,0,0,0,0,0,0,0,0,0,0,0,0,0,0,0,0,0,0,0,0,0,0,0,0,0,0,0,0,0,0,0,0,0,0,0,0,0,0,0,0,0,0,0,0,0,0,0],"id":6,"left_children":[1,3,5,7,9,11,13,15,17,-1,19,21,23,25,27,29,31,33,35,-1,-1,37,39,41,43,-1,-1,-1,45,47,-1,-1,-1,-1,-1,49,51,-1,-1,-1,53,55,57,59,61,-1,-1,-1,-1,-1,-1,-1,-1,-1,-1,-1,-1,-1,-1,-1,-1,-1,-1],"loss_changes":[2.2760709E2,4.071051E1,7.0086685E1,2.4407944E1,9.3125E0,4.553723E1,1.3602064E1,8.762192E0,2.8248964E1,0E0,8.70813E0,7.6940002E0,1.7961105E1,5.5666647E0,7.7789893E0,8.897739E0,7.4094844E0,8.241226E0,1.4090445E1,0E0,0E0,4.8722405E0,7.017517E0,2.332476E1,1.7021212E1,0E0,0E0,0E0,5.7374744E0,7.074568E0,0E0,0E0,0E0,0E0,0E0,1.2025787E1,9.655124E0,0E0,0E0,0E0,1.036969E1,1.0556152E1,1.4121971E1,9.197269E0,1.0083403E1,0E0,0E0,0E0,0E0,0E0,0E0,0E0,0E0,0E0,0E0,0E0,0E0,0E0,0E0,0E0,0E0,0E0,0E0],"parents":[2147483647,0,0,1,1,2,2,3,3,4,4,5,5,6,6,7,7,8,8,10,10,11,11,12,12,13,13,14,14,15,15,16,16,17,17,18,18,21,21,22,22,23,23,24,24,28,28,29,29,35,35,36,36,40,40,41,41,42,42,43,43,44,44],"right_children":[2,4,6,8,10,12,14,16,18,-1,20,22,24,26,28,30,32,34,36,-1,-1,38,40,42,44,-1,-1,-1,46,48,-1,-1,-1,-1,-1,50,52,-1,-1,-1,54,56,58,60,62,-1,-1,-1,-1,-1,-1,-1,-1,-1,-1,-1,-1,-1,-1,-1,-1,-1,-1],"split_conditions":[1.485858E0,1.8459526E3,1.8530428E3,1.919864E1,1.3602667E0,2.622093E0,3.0854134E1,3.001547E1,1.6058514E3,-0E0,4.237753E0,1.4260283E1,1.7196504E3,4.7347054E0,7.0894927E-1,1.6829029E0,1.5544655E0,1.0576854E1,1.2512207E0,-3.3109214E-2,-4.4149365E-3,1.7741221E3,1.5284983E0,3.2395444E0,1.6530603E0,-0E0,-2.6770383E-2,-9.79779E-3,2.2673032E0,1.2558795E0,-2.8315946E-2,-6.7605986E-3,4.1378446E-2,-0E0,5.543919E-2,3.9829113E0,5.723363E0,3.2385375E-2,-1.1110975E-2,-0E0,4.8549324E-2,4.96295E0,4.7866797E0,1.741066E0,8.019033E-2,-0E0,4.0051177E-2,-1.28996475E-2,7.724842E-3,-7.0351968E-3,1.7955843E-2,-1.0919138E-2,2.6546786E-2,9.660762E-2,4.2342346E-2,-9.537624E-5,3.4239795E-2,1.4002155E-2,6.0769495E-2,1.3502364E-2,-1.6974706E-2,-0E0,4.6489634E-2],"split_indices":[13,23,23,12,32,17,12,40,23,0,8,7,23,8,20,19,22,16,20,0,0,23,11,27,11,0,0,0,36,13,0,0,0,0,0,36,36,0,0,0,15,36,8,5,6,0,0,0,0,0,0,0,0,0,0,0,0,0,0,0,0,0,0],"split_type":[0,0,0,0,0,0,0,0,0,0,0,0,0,0,0,0,0,0,0,0,0,0,0,0,0,0,0,0,0,0,0,0,0,0,0,0,0,0,0,0,0,0,0,0,0,0,0,0,0,0,0,0,0,0,0,0,0,0,0,0,0,0,0],"sum_hessian":[3.979E3,2.76E3,1.219E3,2.089E3,6.71E2,9.76E2,2.43E2,1.005E3,1.084E3,5.9E1,6.12E2,2.27E2,7.49E2,1.65E2,7.8E1,9.68E2,3.7E1,6.8E1,1.016E3,5.13E2,9.9E1,2.6E1,2.01E2,4.38E2,3.11E2,4.2E1,1.23E2,2.2E1,5.6E1,7.33E2,2.35E2,1.7E1,2E1,1.1E1,5.7E1,4.17E2,5.99E2,1.6E1,1E1,1.3E1,1.88E2,1.69E2,2.69E2,1.93E2,1.18E2,8E0,4.8E1,6.55E2,7.8E1,1.35E2,2.82E2,5.72E2,2.7E1,9.6E1,9.2E1,1.1E2,5.9E1,7.5E1,1.94E2,8.8E1,1.05E2,4.2E1,7.6E1],"tree_param":{"num_deleted":"0","num_feature":"49","num_nodes":"63","size_leaf_vector":"1"}},{"base_weights":[4.609881E-3,-1.8471971E-1,2.8344172E-1,-2.9463708E-1,-7.1995854E-2,5.624884E-1,1.4872971E-1,-7.080617E-2,-3.7439713E-1,-1.3899457E-1,1.22278504E-1,2.5370115E-1,8.175957E-1,3.2458094E-1,-2.0423668E-2,3.0795684E-1,-1.6263756E-1,-4.0741572E-1,-0E0,-3.0882144E-2,-2.4066132E-1,-6.538094E-2,2.6380086E-1,6.215E-1,5.5944093E-2,2.8483642E-2,9.975184E-1,1.04481444E-1,5.2097857E-1,-1.6525296E-2,9.545737E-2,-7.644111E-4,5.4667998E-2,-2.7915802E-2,-4.978019E-2,-3.2500948E-3,-3.2636736E-2,-2.814102E-2,2.6803258E-1,-1.0188236E-1,1.1211051E-2,-4.9622706E-3,-2.5561737E-2,-2.2932725E-2,6.22755E-3,-0E0,2.9224021E-2,-0E0,5.373196E-2,1.7424388E-1,-2.4561E-2,4.799283E-1,-1.1816957E-2,4.0197042E-1,1.2290215E0,-7.518872E-2,3.156393E-1,6.6521925E-1,1.0634028E-1,-1.4278233E-2,1.5438318E-1,2.9093467E-3,-2.4306E-2,-4.724683E-3,3.7890885E-2,-1.3433521E-2,3.678312E-3,-2.4194422E-3,2.4759486E-2,6.0997125E-2,-0E0,6.1546892E-2,-0E0,9.5068246E-2,-0E0,-1.7950783E-2,8.709965E-3,4.043738E-2,-0E0,5.4674592E-2,-0E0,-1.0179825E-2,4.4448085E-2,-6.02938E-3,1.6033288E-2],"categories":[],"categories_nodes":[],"categories_segments":[],"categories_sizes":[],"default_left":[0,0,0,0,0,0,0,0,1,0,0,0,0,0,0,0,0,0,0,0,0,1,0,0,0,0,0,0,1,0,0,0,0,0,0,0,0,0,0,0,0,0,0,0,0,0,0,0,0,0,0,0,0,1,0,0,0,1,0,0,0,0,0,0,0,0,0,0,0,0,0,0,0,0,0,0,0,0,0,0,0,0,0,0,0],"id":7,"left_children":[1,3,5,7,9,11,13,15,17,19,21,23,25,27,29,31,33,35,37,39,41,43,45,47,49,51,53,55,57,-1,59,-1,-1,-1,61,-1,-1,-1,63,65,-1,-1,-1,-1,-1,-1,-1,-1,-1,67,-1,69,-1,71,73,75,77,79,81,-1,83,-1,-1,-1,-1,-1,-1,-1,-1,-1,-1,-1,-1,-1,-1,-1,-1,-1,-1,-1,-1,-1,-1,-1,-1],"loss_changes":[2.1134526E2,2.754496E1,5.7169205E1,1.8796036E1,1.5875507E1,3.3931366E1,3.4699608E1,1.1465689E1,1.018541E1,8.784639E0,8.901875E0,1.5156727E1,3.353299E1,2.1024788E1,1.4106893E1,1.1447077E1,4.860654E0,7.4756927E0,9.205044E0,6.0824447E0,6.173708E0,5.689225E0,7.4129915E0,8.303171E0,8.240831E0,7.57477E0,1.7917908E1,1.2175893E1,1.29210205E1,0E0,6.108124E0,0E0,0E0,0E0,6.6654243E0,0E0,0E0,0E0,6.4528413E0,5.103319E0,0E0,0E0,0E0,0E0,0E0,0E0,0E0,0E0,0E0,6.6159687E0,0E0,5.1970134E0,0E0,1.71656E1,8.121597E0,5.717891E0,8.969351E0,8.669395E0,1.3964281E1,0E0,5.3723063E0,0E0,0E0,0E0,0E0,0E0,0E0,0E0,0E0,0E0,0E0,0E0,0E0,0E0,0E0,0E0,0E0,0E0,0E0,0E0,0E0,0E0,0E0,0E0,0E0],"parents":[2147483647,0,0,1,1,2,2,3,3,4,4,5,5,6,6,7,7,8,8,9,9,10,10,11,11,12,12,13,13,14,14,15,15,16,16,17,17,18,18,19,19,20,20,21,21,22,22,23,23,24,24,25,25,26,26,27,27,28,28,30,30,34,34,38,38,39,39,49,49,51,51,53,53,54,54,55,55,56,56,57,57,58,58,60,60],"right_children":[2,4,6,8,10,12,14,16,18,20,22,24,26,28,30,32,34,36,38,40,42,44,46,48,50,52,54,56,58,-1,60,-1,-1,-1,62,-1,-1,-1,64,66,-1,-1,-1,-1,-1,-1,-1,-1,-1,68,-1,70,-1,72,74,76,78,80,82,-1,84,-1,-1,-1,-1,-1,-1,-1,-1,-1,-1,-1,-1,-1,-1,-1,-1,-1,-1,-1,-1,-1,-1,-1,-1],"split_conditions":[1.3440219E0,1E0,9.4400257E-1,1.0404723E0,1.4780508E0,1E0,1.7268645E3,1.1378763E1,1.6453235E0,4.443407E0,3.2013133E-2,1.0095667E0,1.0443405E0,1.0617757E0,1.0401227E0,9.9731225E-1,8.365514E-1,5E0,2.7602063E-2,1.2460043E1,1.7339739E3,1.1040861E1,4.0744505E0,1.3112854E1,1.9509195E-1,2.3783784E0,1.6278554E0,1E0,1.25500965E1,-1.6525296E-2,1.2485416E0,-7.644111E-4,5.4667998E-2,-2.7915802E-2,1.1899048E0,-3.2500948E-3,-3.2636736E-2,-2.814102E-2,1.0595601E0,1.2795238E0,1.1211051E-2,-4.9622706E-3,-2.5561737E-2,-2.2932725E-2,6.22755E-3,-0E0,2.9224021E-2,-0E0,5.373196E-2,1.679257E0,-2.4561E-2,1.0787457E-2,-1.1816957E-2,1.1283989E1,2.4137216E0,1.5071164E0,5.760917E2,1.9916154E-1,9.8307006E-2,-1.4278233E-2,1.061738E1,2.9093467E-3,-2.4306E-2,-4.724683E-3,3.7890885E-2,-1.3433521E-2,3.678312E-3,-2.4194422E-3,2.4759486E-2,6.0997125E-2,-0E0,6.1546892E-2,-0E0,9.5068246E-2,-0E0,-1.7950783E-2,8.709965E-3,4.043738E-2,-0E0,5.4674592E-2,-0E0,-1.0179825E-2,4.4448085E-2,-6.02938E-3,1.6033288E-2],"split_indices":[13,0,22,24,39,0,23,16,39,17,6,32,39,24,39,30,13,1,6,7,23,26,17,7,25,17,11,0,26,0,11,0,0,0,11,0,0,0,30,39,0,0,0,0,0,0,0,0,0,11,0,34,0,26,11,39,18,34,25,0,26,0,0,0,0,0,0,0,0,0,0,0,0,0,0,0,0,0,0,0,0,0,0,0,0],"split_type":[0,0,0,0,0,0,0,0,0,0,0,0,0,0,0,0,0,0,0,0,0,0,0,0,0,0,0,0,0,0,0,0,0,0,0,0,0,0,0,0,0,0,0,0,0,0,0,0,0,0,0,0,0,0,0,0,0,0,0,0,0,0,0,0,0,0,0,0,0,0,0,0,0,0,0,0,0,0,0,0,0,0,0,0,0],"sum_hessian":[3.977E3,2.361E3,1.616E3,1.168E3,1.193E3,5.06E2,1.11E3,3.26E2,8.42E2,9.06E2,2.87E2,2.45E2,2.61E2,5.53E2,5.57E2,5E1,2.76E2,7.71E2,7.1E1,4.66E2,4.4E2,1.12E2,1.75E2,7.1E1,1.74E2,5.5E1,2.06E2,2.78E2,2.75E2,2.13E2,3.44E2,2.8E1,2.2E1,7.4E1,2.02E2,8E1,6.91E2,2.9E1,4.2E1,3.56E2,1.1E2,1.88E2,2.52E2,5E1,6.2E1,5.5E1,1.2E2,6E0,6.5E1,1.46E2,2.8E1,1.9E1,3.6E1,7E1,1.36E2,1.42E2,1.36E2,1.92E2,8.3E1,4.2E1,3.02E2,1.47E2,5.5E1,1.3E1,2.9E1,2.51E2,1.05E2,5.5E1,9.1E1,8E0,1.1E1,3.4E1,3.6E1,1.28E2,8E0,8.7E1,5.5E1,6.9E1,6.7E1,1.69E2,2.3E1,5.4E1,2.9E1,4.8E1,2.54E2],"tree_param":{"num_deleted":"0","num_feature":"49","num_nodes":"85","size_leaf_vector":"1"}},{"base_weights":[2.0028783E-2,-1.431977E-1,2.8971043E-1,-2.5484377E-1,-9.447988E-3,1.635345E-1,5.5056304E-1,-3.897065E-2,-2.10565E-1,-2.2200583E-1,3.9493144E-2,3.369753E-1,-1.2213177E-2,2.6684713E-1,8.6900324E-1,-2.6700664E-2,-1.3752766E-1,-2.3618253E-2,-0E0,2.0310016E-1,-7.732621E-3,4.4787037E-1,1.0667013E-1,-8.4949575E-2,2.4601574E-1,-0E0,4.5372298E-1,9.1725457E-1,-0E0,-0E0,-2.0543207E-1,-1.1872608E-3,3.6502114E-1,-5.0372366E-2,3.4266123E-1,8.4962267E-1,2.5815848E-1,-6.816311E-2,5.105977E-1,-1.397124E-1,2.089073E-2,3.6158693E-1,-8.078678E-3,2.9025944E-2,-1.315347E-1,5.325476E-1,-0E0,-0E0,9.394032E-1,-1.7926546E-2,2.4120444E-4,4.027079E-2,4.638902E-3,2.9449326E-3,-1.716085E-2,-0E0,3.883036E-2,6.898589E-2,-0E0,2.7455553E-2,-1.839641E-2,2.6908882E-3,-2.4615843E-2,-0E0,5.3610265E-2,3.2347795E-3,-1.727909E-2,-0E0,3.6755726E-2,-2.3511034E-2,7.323977E-3,4.3824982E-2,-0E0,-0E0,7.107085E-2],"categories":[],"categories_nodes":[],"categories_segments":[],"categories_sizes":[],"default_left":[0,1,0,0,0,1,0,0,0,0,0,0,0,0,1,0,0,0,0,0,0,1,0,0,0,0,0,0,0,0,0,0,0,0,0,1,0,0,0,0,0,0,0,0,0,0,0,0,0,0,0,0,0,0,0,0,0,0,0,0,0,0,0,0,0,0,0,0,0,0,0,0,0,0,0],"id":8,"left_children":[1,3,5,7,9,11,13,-1,15,17,19,21,23,25,27,-1,29,-1,-1,31,33,35,37,39,41,43,45,47,-1,-1,49,-1,51,53,55,57,59,61,63,65,-1,67,-1,-1,69,71,-1,-1,73,-1,-1,-1,-1,-1,-1,-1,-1,-1,-1,-1,-1,-1,-1,-1,-1,-1,-1,-1,-1,-1,-1,-1,-1,-1,-1],"loss_changes":[1.7939812E2,3.643599E1,4.6732086E1,1.2088249E1,1.31042595E1,3.388491E1,3.6853455E1,0E0,1.0516544E1,5.7723E0,8.184216E0,1.11008E1,9.318715E0,1.5008518E1,6.177292E0,0E0,8.338762E0,0E0,0E0,9.8757E0,9.6326E0,2.007306E1,1.6624264E1,8.368374E0,5.7559166E0,5.919512E0,7.757477E0,6.5868835E0,0E0,0E0,5.547407E0,0E0,4.951391E0,1.1818695E1,6.1367826E0,8.444664E0,1.6447504E1,5.371829E0,8.663443E0,7.6900415E0,0E0,6.5827475E0,0E0,0E0,5.5773807E0,7.493572E0,0E0,0E0,5.154419E0,0E0,0E0,0E0,0E0,0E0,0E0,0E0,0E0,0E0,0E0,0E0,0E0,0E0,0E0,0E0,0E0,0E0,0E0,0E0,0E0,0E0,0E0,0E0,0E0,0E0,0E0],"parents":[2147483647,0,0,1,1,2,2,3,3,4,4,5,5,6,6,8,8,9,9,10,10,11,11,12,12,13,13,14,14,16,16,19,19,20,20,21,21,22,22,23,23,24,24,25,25,26,26,27,27,30,30,32,32,33,33,34,34,35,35,36,36,37,37,38,38,39,39,41,41,44,44,45,45,48,48],"right_children":[2,4,6,8,10,12,14,-1,16,18,20,22,24,26,28,-1,30,-1,-1,32,34,36,38,40,42,44,46,48,-1,-1,50,-1,52,54,56,58,60,62,64,66,-1,68,-1,-1,70,72,-1,-1,74,-1,-1,-1,-1,-1,-1,-1,-1,-1,-1,-1,-1,-1,-1,-1,-1,-1,-1,-1,-1,-1,-1,-1,-1,-1,-1],"split_conditions":[1.7747124E3,1.2826448E1,1.9193608E3,1.6149688E3,1.6355094E3,4.0264635E0,2.2851505E1,-3.897065E-2,9.434181E-1,4.073514E0,4.30948E0,1.2674539E1,4.6206183E0,1.968343E3,2.7868296E1,-2.6700664E-2,1.9040314E1,-2.3618253E-2,-0E0,3.9300907E0,3.1309809E1,1.2442722E0,1.4369033E1,2.1439817E0,7.3837024E2,1.9262672E3,5.844556E0,5.337768E2,-0E0,-0E0,1.4967221E0,-1.1872608E-3,5.61173E2,2.4876165E1,2.2800436E-2,1.3095745E0,1.725789E3,6.739881E2,1.2934908E0,6.783142E-2,2.089073E-2,1.3039808E0,-8.078678E-3,2.9025944E-2,1.8705324E0,2.340521E-1,-0E0,-0E0,6.800494E2,-1.7926546E-2,2.4120444E-4,4.027079E-2,4.638902E-3,2.9449326E-3,-1.716085E-2,-0E0,3.883036E-2,6.898589E-2,-0E0,2.7455553E-2,-1.839641E-2,2.6908882E-3,-2.4615843E-2,-0E0,5.3610265E-2,3.2347795E-3,-1.727909E-2,-0E0,3.6755726E-2,-2.3511034E-2,7.323977E-3,4.3824982E-2,-0E0,-0E0,7.107085E-2],"split_indices":[4,35,4,4,4,27,40,0,39,27,36,16,36,4,31,0,40,0,0,36,40,39,16,32,9,4,27,37,0,0,10,0,28,21,6,32,23,37,13,6,0,33,0,0,11,34,0,0,9,0,0,0,0,0,0,0,0,0,0,0,0,0,0,0,0,0,0,0,0,0,0,0,0,0,0],"split_type":[0,0,0,0,0,0,0,0,0,0,0,0,0,0,0,0,0,0,0,0,0,0,0,0,0,0,0,0,0,0,0,0,0,0,0,0,0,0,0,0,0,0,0,0,0,0,0,0,0,0,0,0,0,0,0,0,0,0,0,0,0,0,0,0,0,0,0,0,0,0,0,0,0,0,0],"sum_hessian":[4.043E3,2.511E3,1.532E3,1.346E3,1.165E3,1.054E3,4.78E2,1.6E2,1.186E3,2.29E2,9.36E2,5.39E2,5.15E2,2.69E2,2.09E2,3.55E2,8.31E2,1.62E2,6.7E1,2.24E2,7.12E2,3.45E2,1.94E2,4.2E2,9.5E1,1.09E2,1.6E2,1.94E2,1.5E1,2.66E2,5.65E2,8.7E1,1.37E2,6.53E2,5.9E1,9.3E1,2.52E2,1.33E2,6.1E1,3.81E2,3.9E1,8.1E1,1.4E1,1.8E1,9.1E1,1.41E2,1.9E1,2E0,1.92E2,4.96E2,6.9E1,7.2E1,6.5E1,4.25E2,2.28E2,1.7E1,4.2E1,8.5E1,8E0,2.15E2,3.7E1,8.9E1,4.4E1,1.9E1,4.2E1,1.15E2,2.66E2,1.6E1,6.5E1,5.9E1,3.2E1,1.33E2,8E0,4E0,1.88E2],"tree_param":{"num_deleted":"0","num_feature":"49","num_nodes":"75","size_leaf_vector":"1"}},{"base_weights":[-0E0,-1.506798E-1,2.7145386E-1,-2.4059337E-1,-6.016873E-2,9.498368E-2,5.077881E-1,-3.254903E-1,-1.2513077E-1,-2.1263262E-2,-1.6615076E-3,2.2788806E-1,-1.0645097E-1,2.5566843E-1,7.443184E-1,-1.9408954E-2,-4.444737E-2,5.5449265E-3,-1.9017677E-1,-3.192324E-2,2.5840107E-1,5.206253E-1,2.3987902E-2,-2.3155546E-1,1.5940435E-1,9.795839E-3,5.6149167E-1,5.1626325E-1,1.1035156E0,-2.4937679E-1,-0E0,3.1368237E-2,-5.0242174E-2,4.2480865E-1,-6.449693E-3,5.733316E-1,-0E0,-1.4091551E-1,2.2890931E-1,-0E0,-3.4237996E-1,3.2522076E-1,-6.738916E-3,2.1039417E-1,-2.7790192E-1,-0E0,6.6309094E-1,5.724442E-3,6.531458E-1,1.2913159E0,-0E0,-0E0,-2.4609491E-2,-0E0,-1.6557578E-2,-0E0,4.4686392E-2,-0E0,4.9213525E-2,-1.8393183E-2,7.3886686E-3,-0E0,4.4494834E-2,-3.30059E-2,-0E0,-0E0,4.2448778E-2,4.9566332E-2,2.542431E-3,-3.4327324E-2,-0E0,6.5439664E-2,5.3348443E-3,-0E0,5.1075004E-2,1.0484218E-1,-0E0],"categories":[],"categories_nodes":[],"categories_segments":[],"categories_sizes":[],"default_left":[0,0,0,0,1,0,0,1,1,0,0,0,0,0,0,0,0,0,0,0,0,0,0,0,0,0,0,0,1,0,0,0,0,0,0,0,0,0,0,0,0,0,0,0,0,0,0,0,0,0,0,0,0,0,0,0,0,0,0,0,0,0,0,0,0,0,0,0,0,0,0,0,0,0,0,0,0],"id":9,"left_children":[1,3,5,7,9,11,13,15,17,-1,19,21,23,25,27,-1,-1,-1,29,31,33,35,37,39,41,43,45,47,49,51,-1,-1,53,55,-1,57,-1,59,61,-1,63,65,-1,67,69,-1,71,-1,73,75,-1,-1,-1,-1,-1,-1,-1,-1,-1,-1,-1,-1,-1,-1,-1,-1,-1,-1,-1,-1,-1,-1,-1,-1,-1,-1,-1],"loss_changes":[1.6131659E2,1.9163616E1,5.5610214E1,9.823349E0,1.6038147E1,2.2929451E1,2.895787E1,6.650444E0,7.9879026E0,0E0,7.4042373E0,2.8213352E1,1.1369067E1,2.057966E1,1.1387405E1,0E0,0E0,0E0,6.047327E0,6.664516E0,7.365341E0,7.379383E0,1.1568621E1,5.3948517E0,5.344986E0,1.1087473E1,8.587101E0,8.431141E0,1.6989426E1,7.7495213E0,0E0,0E0,8.061673E0,5.897007E0,0E0,8.080315E0,0E0,5.3760076E0,1.130937E1,0E0,6.8518524E0,6.7250423E0,0E0,6.8011737E0,5.2605963E0,0E0,9.943756E0,0E0,4.662052E0,8.123184E0,0E0,0E0,0E0,0E0,0E0,0E0,0E0,0E0,0E0,0E0,0E0,0E0,0E0,0E0,0E0,0E0,0E0,0E0,0E0,0E0,0E0,0E0,0E0,0E0,0E0,0E0,0E0],"parents":[2147483647,0,0,1,1,2,2,3,3,4,4,5,5,6,6,7,7,8,8,10,10,11,11,12,12,13,13,14,14,18,18,19,19,20,20,21,21,22,22,23,23,24,24,25,25,26,26,27,27,28,28,29,29,32,32,33,33,35,35,37,37,38,38,40,40,41,41,43,43,44,44,46,46,48,48,49,49],"right_children":[2,4,6,8,10,12,14,16,18,-1,20,22,24,26,28,-1,-1,-1,30,32,34,36,38,40,42,44,46,48,50,52,-1,-1,54,56,-1,58,-1,60,62,-1,64,66,-1,68,70,-1,72,-1,74,76,-1,-1,-1,-1,-1,-1,-1,-1,-1,-1,-1,-1,-1,-1,-1,-1,-1,-1,-1,-1,-1,-1,-1,-1,-1,-1,-1],"split_conditions":[1.7841847E3,1E0,1.3201552E1,1.9917503E1,1.0497961E0,1.1267632E0,1E0,1.5488836E1,1.8245575E1,-2.1263262E-2,1.9338964E-1,3.9661727E0,1E0,1.48924E1,2.969055E1,-1.9408954E-2,-4.444737E-2,5.5449265E-3,1.5665057E-1,8.47966E-1,6.3766376E2,1.3010599E1,1E0,1.8224663E3,5.4272604E0,2.0674923E1,1.4863953E1,4.4138246E0,6.8761584E2,3.7146833E0,-0E0,3.1368237E-2,1E0,5.4027985E2,-6.449693E-3,9.934047E-1,-0E0,1.0577049E0,5.8121033E0,-0E0,1.5372949E1,1.5429072E0,-6.738916E-3,7.7428465E0,1.8083845E0,-0E0,1.2298257E0,5.724442E-3,2.0882301E1,1.1538166E1,-0E0,-0E0,-2.4609491E-2,-0E0,-1.6557578E-2,-0E0,4.4686392E-2,-0E0,4.9213525E-2,-1.8393183E-2,7.3886686E-3,-0E0,4.4494834E-2,-3.30059E-2,-0E0,-0E0,4.2448778E-2,4.9566332E-2,2.542431E-3,-3.4327324E-2,-0E0,6.5439664E-2,5.3348443E-3,-0E0,5.1075004E-2,1.0484218E-1,-0E0],"split_indices":[4,0,35,12,38,20,0,26,31,0,6,27,47,35,12,0,0,0,6,20,28,35,0,4,8,31,31,36,37,27,0,0,3,28,0,33,0,22,8,0,7,13,0,16,11,0,20,0,40,16,0,0,0,0,0,0,0,0,0,0,0,0,0,0,0,0,0,0,0,0,0,0,0,0,0,0,0],"split_type":[0,0,0,0,0,0,0,0,0,0,0,0,0,0,0,0,0,0,0,0,0,0,0,0,0,0,0,0,0,0,0,0,0,0,0,0,0,0,0,0,0,0,0,0,0,0,0,0,0,0,0,0,0,0,0,0,0,0,0,0,0,0,0,0,0,0,0,0,0,0,0,0,0,0,0,0,0],"sum_hessian":[3.925E3,2.526E3,1.399E3,1.235E3,1.291E3,8.19E2,5.8E2,6.8E2,5.55E2,2.41E2,1.05E3,5.06E2,3.13E2,2.99E2,2.81E2,5.82E2,9.8E1,1.19E2,4.36E2,9.63E2,8.7E1,1.93E2,3.13E2,2.25E2,8.8E1,1.79E2,1.2E2,1.93E2,8.8E1,3.47E2,8.9E1,2E1,9.43E2,6.6E1,2.1E1,1.8E2,1.3E1,1.63E2,1.5E2,8.1E1,1.44E2,6.2E1,2.6E1,1.16E2,6.3E1,1.7E1,1.03E2,5.7E1,1.36E2,7.2E1,1.6E1,8.7E1,2.6E2,7.44E2,1.99E2,2.2E1,4.4E1,3.1E1,1.49E2,1.25E2,3.8E1,1.05E2,4.5E1,1.15E2,2.9E1,2.8E1,3.4E1,1.8E1,9.8E1,4.1E1,2.2E1,6.6E1,3.7E1,6E0,1.3E2,6.2E1,1E1],"tree_param":{"num_deleted":"0","num_feature":"49","num_nodes":"77","size_leaf_vector":"1"}},{"base_weights":[7.478307E-3,-8.028535E-2,3.71828E-1,-1.4302827E-1,7.378746E-2,5.9534436E-1,1.8791841E-1,-3.200825E-1,-9.603203E-2,-1.7508687E-2,3.4809065E-1,6.5631986E-1,-0E0,-0E0,3.7333065E-1,-3.4471188E-2,-1.9368407E-1,-4.7344733E-2,-2.8245276E-1,-1.5594567E-1,1.0522845E-1,-0E0,4.846108E-1,7.1041733E-1,-0E0,6.0294505E-2,-2.3683272E-2,5.066057E-1,-0E0,-1.7133154E-2,1.720086E-2,-1.4304958E-1,3.993206E-2,2.373605E-2,-2.3245119E-2,-2.4556507E-1,7.5372243E-3,-6.3688524E-2,2.1539666E-1,4.363691E-2,-6.8138097E-3,4.70766E-2,-0E0,4.4328892E-1,9.324512E-1,3.6715843E-2,-6.420487E-2,7.1942586E-1,6.275367E-2,-2.7259518E-3,-1.9097038E-2,-3.6166909E-3,7.894975E-3,-0E0,-2.3904145E-2,8.131351E-3,-1.8393612E-2,3.2242075E-2,-0E0,6.326859E-2,1.4321781E-2,7.443826E-2,-0E0,-1.7832745E-2,1.0381418E-2,6.699002E-2,8.516672E-3,2.6953677E-2,-6.1766524E-3],"categories":[],"categories_nodes":[],"categories_segments":[],"categories_sizes":[],"default_left":[0,0,1,0,0,0,0,0,0,0,0,1,0,0,0,0,0,0,0,0,0,0,0,0,0,0,0,0,0,0,0,0,0,0,0,0,0,1,0,0,0,0,0,0,0,0,0,0,0,0,0,0,0,0,0,0,0,0,0,0,0,0,0,0,0,0,0,0,0],"id":10,"left_children":[1,3,5,7,9,11,13,15,17,19,21,23,-1,25,27,-1,29,31,33,35,37,39,41,43,-1,45,-1,47,-1,-1,-1,49,51,-1,-1,53,-1,55,57,-1,-1,-1,-1,59,61,-1,63,65,67,-1,-1,-1,-1,-1,-1,-1,-1,-1,-1,-1,-1,-1,-1,-1,-1,-1,-1,-1,-1],"loss_changes":[1.2966797E2,3.1590132E1,2.7940872E1,1.7144295E1,2.4540413E1,1.3971634E1,1.6485836E1,4.8173866E0,1.5323713E1,1.2032248E1,9.438446E0,1.1541534E1,0E0,5.055077E0,1.3594326E1,0E0,5.0723104E0,1.3098432E1,8.029503E0,8.799172E0,7.3508368E0,7.318518E0,1.1676353E1,7.3359375E0,0E0,1.3045347E1,0E0,1.3127556E1,0E0,0E0,0E0,7.7415104E0,4.898409E0,0E0,0E0,6.258152E0,0E0,5.060047E0,1.2751402E1,0E0,0E0,0E0,0E0,1.0123751E1,7.521492E0,0E0,6.3896823E0,7.455036E0,4.851338E0,0E0,0E0,0E0,0E0,0E0,0E0,0E0,0E0,0E0,0E0,0E0,0E0,0E0,0E0,0E0,0E0,0E0,0E0,0E0,0E0],"parents":[2147483647,0,0,1,1,2,2,3,3,4,4,5,5,6,6,7,7,8,8,9,9,10,10,11,11,13,13,14,14,16,16,17,17,18,18,19,19,20,20,21,21,22,22,23,23,25,25,27,27,31,31,32,32,35,35,37,37,38,38,43,43,44,44,46,46,47,47,48,48],"right_children":[2,4,6,8,10,12,14,16,18,20,22,24,-1,26,28,-1,30,32,34,36,38,40,42,44,-1,46,-1,48,-1,-1,-1,50,52,-1,-1,54,-1,56,58,-1,-1,-1,-1,60,62,-1,64,66,68,-1,-1,-1,-1,-1,-1,-1,-1,-1,-1,-1,-1,-1,-1,-1,-1,-1,-1,-1,-1],"split_conditions":[2.6958384E1,1.559903E0,1.268368E0,9.8963773E-1,6.2533154E2,4.4374514E0,1E0,1.1700577E0,1.907414E3,1E0,2.0153246E1,1.4221117E0,-0E0,1.6966269E1,1.891085E3,-3.4471188E-2,3.0333961E1,1E0,2.6053135E0,1.4218217E0,1.2989916E0,8.0477923E-1,2.119924E1,1E0,-0E0,5.4397876E2,-2.3683272E-2,6.2731116E2,-0E0,-1.7133154E-2,1.720086E-2,1.340778E0,1.2333846E0,2.373605E-2,-2.3245119E-2,8.3269686E-1,7.5372243E-3,6.55986E2,1.5384715E0,4.363691E-2,-6.8138097E-3,4.70766E-2,-0E0,5.3735137E0,1E0,3.6715843E-2,5.927558E0,8.906637E-2,1.2147454E-1,-2.7259518E-3,-1.9097038E-2,-3.6166909E-3,7.894975E-3,-0E0,-2.3904145E-2,8.131351E-3,-1.8393612E-2,3.2242075E-2,-0E0,6.326859E-2,1.4321781E-2,7.443826E-2,-0E0,-1.7832745E-2,1.0381418E-2,6.699002E-2,8.516672E-3,2.6953677E-2,-6.1766524E-3],"split_indices":[12,38,29,10,9,17,0,33,23,0,21,24,0,26,23,0,31,0,17,10,20,14,31,0,0,37,0,37,0,0,0,33,38,0,0,24,0,37,20,0,0,0,0,8,43,0,8,15,6,0,0,0,0,0,0,0,0,0,0,0,0,0,0,0,0,0,0,0,0],"split_type":[0,0,0,0,0,0,0,0,0,0,0,0,0,0,0,0,0,0,0,0,0,0,0,0,0,0,0,0,0,0,0,0,0,0,0,0,0,0,0,0,0,0,0,0,0,0,0,0,0,0,0,0,0,0,0,0,0,0,0,0,0,0,0,0,0,0,0,0,0],"sum_hessian":[3.997E3,3.217E3,7.8E2,2.307E3,9.1E2,3.32E2,4.48E2,4.53E2,1.854E3,6.77E2,2.33E2,3.04E2,2.8E1,2.23E2,2.25E2,1.82E2,2.71E2,1.498E3,3.56E2,3.34E2,3.43E2,7.7E1,1.56E2,2.81E2,2.3E1,1.9E2,3.3E1,1.71E2,5.4E1,2.62E2,9E0,7.36E2,7.62E2,7E0,3.49E2,2.61E2,7.3E1,1.21E2,2.22E2,1E1,6.7E1,1.15E2,4.1E1,1.49E2,1.32E2,4.4E1,1.46E2,1.05E2,6.6E1,4.1E2,3.26E2,3E2,4.62E2,5.5E1,2.06E2,5.2E1,6.9E1,1.14E2,1.08E2,4.1E1,1.08E2,1.19E2,1.3E1,8.9E1,5.7E1,7.1E1,3.4E1,2.7E1,3.9E1],"tree_param":{"num_deleted":"0","num_feature":"49","num_nodes":"69","size_leaf_vector":"1"}},{"base_weights":[-2.4280404E-3,-1.154343E-1,2.5775358E-1,-5.2309368E-2,-3.0279142E-1,4.244924E-1,5.6419883E-2,-2.56164E-1,-3.783116E-3,-1.08634956E-1,-3.6418664E-1,2.5508294E-1,6.4355356E-1,-5.9458982E-2,3.174696E-1,-2.2878245E-2,-0E0,-8.834075E-2,8.989155E-2,6.1302066E-2,-2.3686875E-1,-4.198595E-1,-4.90553E-3,-0E0,3.421407E-1,2.9830155E-1,9.494745E-1,-1.3993558E-1,2.7708057E-2,7.011994E-2,5.039938E-1,-1.4908017E-1,1.3379154E-2,-1.653299E-2,2.0893879E-1,-2.0189103E-2,2.2143276E-2,-2.6969595E-2,5.549761E-3,9.679226E-3,-3.231523E-2,2.1064352E-2,4.6587554E-1,-0E0,5.518644E-1,1.054039E0,-0E0,9.8039955E-3,-1.908573E-1,3.0526176E-1,-7.956119E-3,-0E0,6.041401E-1,-8.005573E-4,-2.2496209E-2,1.1078372E-2,-1.0570215E-2,-2.1837568E-2,3.4109708E-3,1.8972108E-2,-3.460388E-3,-1.38770025E-2,3.5589203E-2,4.625258E-2,1.0965705E-2,-0E0,6.003853E-2,8.8788435E-2,1.6865326E-2,1.4715343E-2,-1.6916186E-2,3.4939975E-2,-0E0,5.3611796E-2,-0E0],"categories":[],"categories_nodes":[],"categories_segments":[],"categories_sizes":[],"default_left":[0,0,0,0,0,0,0,0,1,0,0,0,0,0,0,0,0,0,0,0,0,0,0,0,0,1,1,0,0,0,0,0,0,0,0,0,0,0,0,0,0,0,0,0,0,1,0,0,0,0,0,0,0,0,0,0,0,0,0,0,0,0,0,0,0,0,0,0,0,0,0,0,0,0,0],"id":11,"left_children":[1,3,5,7,9,11,13,15,17,19,21,23,25,27,29,-1,-1,31,33,35,37,39,-1,-1,41,43,45,47,-1,49,51,53,55,57,59,-1,-1,-1,-1,-1,-1,61,63,-1,65,67,-1,-1,69,71,-1,-1,73,-1,-1,-1,-1,-1,-1,-1,-1,-1,-1,-1,-1,-1,-1,-1,-1,-1,-1,-1,-1,-1,-1],"loss_changes":[1.18308525E2,3.1773777E1,3.8370132E1,2.0076435E1,5.8140106E0,1.8641357E1,1.8623615E1,6.3431377E0,1.401484E1,5.206896E0,5.975769E0,7.9128246E0,1.9986923E1,1.3150327E1,5.8530617E0,0E0,0E0,6.521803E0,1.1212851E1,7.02124E0,6.710555E0,5.927559E0,0E0,0E0,9.114281E0,9.046169E0,1.6144875E1,5.2948194E0,0E0,5.4467196E0,6.6495724E0,1.2036165E1,7.459016E0,8.573692E0,6.018265E0,0E0,0E0,0E0,0E0,0E0,0E0,1.1677504E1,5.7040405E0,0E0,1.2489742E1,5.869812E0,0E0,0E0,5.1608562E0,5.0022635E0,0E0,0E0,8.007154E0,0E0,0E0,0E0,0E0,0E0,0E0,0E0,0E0,0E0,0E0,0E0,0E0,0E0,0E0,0E0,0E0,0E0,0E0,0E0,0E0,0E0,0E0],"parents":[2147483647,0,0,1,1,2,2,3,3,4,4,5,5,6,6,7,7,8,8,9,9,10,10,11,11,12,12,13,13,14,14,17,17,18,18,19,19,20,20,21,21,24,24,25,25,26,26,27,27,29,29,30,30,31,31,32,32,33,33,34,34,41,41,42,42,44,44,45,45,48,48,49,49,52,52],"right_children":[2,4,6,8,10,12,14,16,18,20,22,24,26,28,30,-1,-1,32,34,36,38,40,-1,-1,42,44,46,48,-1,50,52,54,56,58,60,-1,-1,-1,-1,-1,-1,62,64,-1,66,68,-1,-1,70,72,-1,-1,74,-1,-1,-1,-1,-1,-1,-1,-1,-1,-1,-1,-1,-1,-1,-1,-1,-1,-1,-1,-1,-1,-1],"split_conditions":[1.485858E0,1.8441338E3,1.7375581E3,1.6342633E3,4.905008E0,2.8715836E1,3.1481623E1,1.9863525E1,1.3859195E0,1.0587068E1,4.237753E0,9.58033E-1,1E0,1.4740433E0,1E0,-2.2878245E-2,-0E0,1.2143513E1,1E0,1.3943187E0,1.7680126E3,2.4325535E0,-4.90553E-3,-0E0,4.830804E0,2.5228565E1,1.9083275E-1,1.4181604E1,2.7708057E-2,1.9944668E3,1.6898787E0,1.883071E1,1.262997E0,1.0464666E0,1.5455594E1,-2.0189103E-2,2.2143276E-2,-2.6969595E-2,5.549761E-3,9.679226E-3,-3.231523E-2,1.08188584E-1,1.5669723E0,-0E0,1.869083E0,1.6542078E0,-0E0,9.8039955E-3,1.4248224E0,1.7040238E-1,-7.956119E-3,-0E0,2.3951569E0,-8.005573E-4,-2.2496209E-2,1.1078372E-2,-1.0570215E-2,-2.1837568E-2,3.4109708E-3,1.8972108E-2,-3.460388E-3,-1.38770025E-2,3.5589203E-2,4.625258E-2,1.0965705E-2,-0E0,6.003853E-2,8.8788435E-2,1.6865326E-2,1.4715343E-2,-1.6916186E-2,3.4939975E-2,-0E0,5.3611796E-2,-0E0],"split_indices":[13,23,23,4,27,12,12,12,39,7,8,14,0,41,0,0,0,7,0,14,4,17,0,0,8,40,25,21,0,4,13,12,22,10,16,0,0,0,0,0,0,25,11,0,10,41,0,0,5,25,0,0,10,0,0,0,0,0,0,0,0,0,0,0,0,0,0,0,0,0,0,0,0,0,0],"split_type":[0,0,0,0,0,0,0,0,0,0,0,0,0,0,0,0,0,0,0,0,0,0,0,0,0,0,0,0,0,0,0,0,0,0,0,0,0,0,0,0,0,0,0,0,0,0,0,0,0,0,0,0,0,0,0,0,0,0,0,0,0,0,0,0,0,0,0,0,0,0,0,0,0,0,0],"sum_hessian":[4.027E3,2.823E3,1.204E3,2.138E3,6.85E2,6.41E2,5.63E2,3.86E2,1.752E3,1.88E2,4.97E2,3.84E2,2.57E2,3.83E2,1.8E2,3.27E2,5.9E1,9.46E2,8.06E2,6.8E1,1.2E2,4.03E2,9.4E1,1.07E2,2.77E2,1.36E2,1.21E2,3.37E2,4.6E1,9.3E1,8.7E1,6.17E2,3.29E2,4.1E2,3.96E2,2E1,4.8E1,9.4E1,2.6E1,3E0,4E2,9E1,1.87E2,7.3E1,6.3E1,1.11E2,1E1,3.7E1,3E2,4.8E1,4.5E1,1.1E1,7.6E1,3.47E2,2.7E2,1.91E2,1.38E2,8.2E1,3.28E2,3.48E2,4.8E1,5.9E1,3.1E1,1.09E2,7.8E1,2E1,4.3E1,8.6E1,2.5E1,1.3E1,2.87E2,3.7E1,1.1E1,6.5E1,1.1E1],"tree_param":{"num_deleted":"0","num_feature":"49","num_nodes":"75","size_leaf_vector":"1"}},{"base_weights":[3.8068424E-4,-8.883167E-2,2.8317955E-1,2.1596833E-3,-1.8597372E-1,4.09288E-1,1.720488E-5,-8.28072E-2,9.586983E-2,-2.8527492E-1,-7.740006E-2,2.2888586E-1,5.604652E-1,-1.363269E-1,2.3426536E-1,-2.0107115E-2,-6.3944305E-4,1.8420778E-1,-8.872073E-3,-2.3883862E-2,-5.7262924E-2,2.8243323E-4,-2.5886697E-1,3.64845E-1,-0E0,-8.578963E-3,6.2434757E-1,2.588684E-2,-1.6388044E-2,-0E0,4.9559465E-1,-2.613316E-1,3.3400156E-2,7.725412E-3,6.327927E-1,-1.5826955E-1,1.3571484E-1,5.975297E-3,-2.6760487E-2,-1.7165653E-1,1.0317301E-1,2.4485232E-2,-2.2368973E-2,5.1600736E-1,6.557497E-2,1.3437607E-2,-2.4486706E-2,7.8945816E-1,3.1343558E-1,-0E0,6.565788E-1,-3.3881202E-2,7.097159E-3,6.572552E-3,-2.5130443E-2,5.6279767E-2,-0E0,3.269505E-3,-2.075743E-2,2.3548538E-2,-4.3289973E-3,-0E0,-2.3397248E-2,-1.0305897E-2,1.4180197E-2,-0E0,4.292007E-2,-6.8455385E-3,3.569946E-2,-0E0,6.029389E-2,3.3779427E-2,-0E0,-0E0,5.6937963E-2],"categories":[],"categories_nodes":[],"categories_segments":[],"categories_sizes":[],"default_left":[0,0,0,0,0,0,0,1,0,0,0,0,0,0,0,0,0,0,0,0,0,0,0,0,0,0,0,0,0,0,0,0,0,0,0,0,0,0,0,0,0,0,0,0,0,0,0,0,0,0,0,0,0,0,0,0,0,0,0,0,0,0,0,0,0,0,0,0,0,0,0,0,0,0,0],"id":12,"left_children":[1,3,5,7,9,11,13,15,17,19,21,23,25,27,29,-1,31,33,35,-1,37,39,41,43,45,-1,47,-1,-1,-1,49,51,53,-1,55,57,59,-1,-1,61,63,-1,-1,65,67,-1,-1,69,71,-1,73,-1,-1,-1,-1,-1,-1,-1,-1,-1,-1,-1,-1,-1,-1,-1,-1,-1,-1,-1,-1,-1,-1,-1,-1],"loss_changes":[1.0208674E2,2.767401E1,3.29663E1,1.2504355E1,1.428624E1,1.3411774E1,1.0948866E1,1.1167677E1,7.900531E0,4.718048E0,1.1680775E1,9.156424E0,1.7661163E1,8.312987E0,8.9299555E0,0E0,6.239393E0,1.1832666E1,7.577175E0,0E0,7.2566404E0,8.96949E0,7.0641193E0,6.1160736E0,8.594907E0,0E0,9.231606E0,0E0,0E0,0E0,6.6555405E0,7.880202E0,9.679875E0,0E0,6.6442604E0,5.7715654E0,7.0625916E0,0E0,0E0,5.347291E0,7.9011965E0,0E0,0E0,4.621311E0,7.9052224E0,0E0,0E0,5.752594E0,6.004443E0,0E0,5.117853E0,0E0,0E0,0E0,0E0,0E0,0E0,0E0,0E0,0E0,0E0,0E0,0E0,0E0,0E0,0E0,0E0,0E0,0E0,0E0,0E0,0E0,0E0,0E0,0E0],"parents":[2147483647,0,0,1,1,2,2,3,3,4,4,5,5,6,6,7,7,8,8,9,9,10,10,11,11,12,12,13,13,14,14,16,16,17,17,18,18,20,20,21,21,22,22,23,23,24,24,26,26,30,30,31,31,32,32,34,34,35,35,36,36,39,39,40,40,43,43,44,44,47,47,48,48,50,50],"right_children":[2,4,6,8,10,12,14,16,18,20,22,24,26,28,30,-1,32,34,36,-1,38,40,42,44,46,-1,48,-1,-1,-1,50,52,54,-1,56,58,60,-1,-1,62,64,-1,-1,66,68,-1,-1,70,72,-1,74,-1,-1,-1,-1,-1,-1,-1,-1,-1,-1,-1,-1,-1,-1,-1,-1,-1,-1,-1,-1,-1,-1,-1,-1],"split_conditions":[6.78569E2,1.7361974E3,1.7932233E3,1.9467976E1,1E0,1E0,3.104331E1,5.250019E2,1.6847062E3,1.4607425E0,1.8955867E3,7.699756E2,1.1974529E0,4.936083E2,1E0,-2.0107115E-2,2.0072842E1,2.5864277E1,1E0,-2.3883862E-2,5.2190375E0,1.3523602E0,9.257905E-1,1.089041E1,5.2166766E2,-8.578963E-3,1.00712754E-1,2.588684E-2,-1.6388044E-2,-0E0,8.559391E-1,1.288149E0,1.6263541E0,7.725412E-3,1.3125435E0,1.3894982E0,1.3320079E0,5.975297E-3,-2.6760487E-2,1.2965078E0,1.7615034E1,2.4485232E-2,-2.2368973E-2,4.97175E2,1.5739987E0,1.3437607E-2,-2.4486706E-2,1.2167586E0,1.8878795E0,-0E0,7.1389307E2,-3.3881202E-2,7.097159E-3,6.572552E-3,-2.5130443E-2,5.6279767E-2,-0E0,3.269505E-3,-2.075743E-2,2.3548538E-2,-4.3289973E-3,-0E0,-2.3397248E-2,-1.0305897E-2,1.4180197E-2,-0E0,4.292007E-2,-6.8455385E-3,3.569946E-2,-0E0,6.029389E-2,3.3779427E-2,-0E0,-0E0,5.6937963E-2],"split_indices":[9,23,23,12,0,0,12,28,23,13,23,9,11,18,0,0,21,12,0,0,8,29,19,16,18,0,15,0,0,0,38,24,24,0,30,38,20,0,0,38,12,0,0,18,41,0,0,13,13,0,9,0,0,0,0,0,0,0,0,0,0,0,0,0,0,0,0,0,0,0,0,0,0,0,0],"split_type":[0,0,0,0,0,0,0,0,0,0,0,0,0,0,0,0,0,0,0,0,0,0,0,0,0,0,0,0,0,0,0,0,0,0,0,0,0,0,0,0,0,0,0,0,0,0,0,0,0,0,0,0,0,0,0,0,0,0,0,0,0,0,0,0,0,0,0,0,0,0,0,0,0,0,0],"sum_hessian":[3.994E3,3.029E3,9.65E2,1.545E3,1.484E3,6.54E2,3.11E2,7.86E2,7.59E2,7.46E2,7.38E2,3.22E2,3.32E2,1.87E2,1.24E2,2.15E2,5.71E2,4.31E2,3.28E2,6.19E2,1.27E2,5.06E2,2.32E2,1.9E2,1.32E2,2.2E1,3.1E2,1.6E1,1.71E2,6.7E1,5.7E1,7.4E1,4.97E2,3.84E2,4.7E1,1.76E2,1.52E2,8.2E1,4.5E1,1.71E2,3.35E2,5E0,2.27E2,1.12E2,7.8E1,9.4E1,3.8E1,1.84E2,1.26E2,1.3E1,4.4E1,5.4E1,2E1,4.49E2,4.8E1,4.1E1,6E0,5.5E1,1.21E2,8.7E1,6.5E1,7.4E1,9.7E1,7.5E1,2.6E2,1.2E1,1E2,5.4E1,2.4E1,4E0,1.8E2,8.3E1,4.3E1,6E0,3.8E1],"tree_param":{"num_deleted":"0","num_feature":"49","num_nodes":"75","size_leaf_vector":"1"}},{"base_weights":[7.188307E-3,-9.7797275E-2,1.9509692E-1,3.420682E-2,-1.6131806E-1,4.9949665E-2,3.3273453E-1,2.3616493E-1,-3.6985883E-3,-1.9291036E-2,-5.7784133E-2,1.6853712E-1,-7.910607E-3,4.1446322E-1,-8.580996E-2,4.11903E-3,3.9752968E-2,-8.360869E-2,1.0679553E-1,-7.871324E-3,1.9412988E-1,7.485842E-2,3.8774088E-1,2.1291964E-1,6.1212367E-1,-2.4586846E-1,1.0453512E-2,-1.4278654E-2,5.9447862E-2,-4.1989577E-3,2.4055699E-1,-2.3910475E-3,3.573142E-1,3.2715544E-2,-1.2889048E-2,6.414221E-1,-5.9995736E-4,3.0265829E-2,5.2217084E-1,6.8468237E-1,-0E0,-2.9405413E-2,7.3556453E-3,1.2155982E-2,-2.1897135E-2,3.863498E-2,-0E0,3.5167765E-2,-5.8630626E-3,-5.7879454E-3,2.814673E-2,5.3279478E-2,-0E0,-1.6207648E-3,3.0457102E-2,-0E0,4.6154484E-2,5.2737705E-2,-0E0],"categories":[],"categories_nodes":[],"categories_segments":[],"categories_sizes":[],"default_left":[0,0,0,0,0,0,0,0,0,0,0,1,0,0,0,0,0,0,0,0,0,0,0,0,0,0,0,0,0,0,0,0,0,0,0,0,0,0,0,0,0,0,0,0,0,0,0,0,0,0,0,0,0,0,0,0,0,0,0],"id":13,"left_children":[1,3,5,7,9,11,13,15,17,-1,19,21,-1,23,25,-1,-1,27,29,-1,31,33,35,37,39,41,-1,-1,43,-1,45,-1,47,-1,49,51,-1,53,55,57,-1,-1,-1,-1,-1,-1,-1,-1,-1,-1,-1,-1,-1,-1,-1,-1,-1,-1,-1],"loss_changes":[7.985377E1,2.214823E1,2.7278687E1,7.3108153E0,1.6639885E1,1.4149566E1,2.6791862E1,5.161708E0,5.9832315E0,0E0,1.0833248E1,6.698186E0,0E0,1.9932755E1,5.078062E0,0E0,0E0,7.34398E0,6.7656727E0,0E0,6.505043E0,1.2725487E1,1.4418512E1,1.6218027E1,1.164167E1,6.1149874E0,0E0,0E0,6.340664E0,0E0,1.2219159E1,0E0,6.7887554E0,0E0,5.847714E0,4.7811985E0,0E0,6.369592E0,8.394587E0,6.297989E0,0E0,0E0,0E0,0E0,0E0,0E0,0E0,0E0,0E0,0E0,0E0,0E0,0E0,0E0,0E0,0E0,0E0,0E0,0E0],"parents":[2147483647,0,0,1,1,2,2,3,3,4,4,5,5,6,6,7,7,8,8,10,10,11,11,13,13,14,14,17,17,18,18,20,20,21,21,22,22,23,23,24,24,25,25,28,28,30,30,32,32,34,34,35,35,37,37,38,38,39,39],"right_children":[2,4,6,8,10,12,14,16,18,-1,20,22,-1,24,26,-1,-1,28,30,-1,32,34,36,38,40,42,-1,-1,44,-1,46,-1,48,-1,50,52,-1,54,56,58,-1,-1,-1,-1,-1,-1,-1,-1,-1,-1,-1,-1,-1,-1,-1,-1,-1,-1,-1],"split_conditions":[1.7853744E3,1.6867235E3,1E0,1.602195E3,1E0,1.7562233E3,1.891085E3,5.995124E2,1.6593413E3,-1.9291036E-2,1.6664741E0,1.47417555E1,-7.910607E-3,1.7219765E0,9.0837246E-1,4.11903E-3,3.9752968E-2,1.662008E0,1.0061297E0,-7.871324E-3,1.6784805E3,1.197232E0,1.849358E0,1.4511311E0,4.123071E0,1.9976579E0,1.0453512E-2,-1.4278654E-2,1.9534267E0,-4.1989577E-3,1.3276324E1,-2.3910475E-3,1.7758754E0,3.2715544E-2,1.7409739E3,5.527245E0,-5.9995736E-4,1.5732421E0,8.827898E-1,2.6212137E0,-0E0,-2.9405413E-2,7.3556453E-3,1.2155982E-2,-2.1897135E-2,3.863498E-2,-0E0,3.5167765E-2,-5.8630626E-3,-5.7879454E-3,2.814673E-2,5.3279478E-2,-0E0,-1.6207648E-3,3.0457102E-2,-0E0,4.6154484E-2,5.2737705E-2,-0E0],"split_indices":[4,23,0,23,0,23,23,9,23,0,33,35,0,10,41,0,0,14,30,0,4,33,13,41,17,10,0,0,19,0,16,0,39,0,23,8,0,30,19,10,0,0,0,0,0,0,0,0,0,0,0,0,0,0,0,0,0,0,0],"split_type":[0,0,0,0,0,0,0,0,0,0,0,0,0,0,0,0,0,0,0,0,0,0,0,0,0,0,0,0,0,0,0,0,0,0,0,0,0,0,0,0,0,0,0,0,0,0,0,0,0,0,0,0,0,0,0,0,0,0,0],"sum_hessian":[4.008E3,2.559E3,1.449E3,8.1E2,1.749E3,7.27E2,7.22E2,1.39E2,6.71E2,8.61E2,8.88E2,4.3E2,2.97E2,6.13E2,1.09E2,1.03E2,3.6E1,4.14E2,2.57E2,7.63E2,1.25E2,3.24E2,1.06E2,3.24E2,2.89E2,7.5E1,3.4E1,2.5E2,1.64E2,1.03E2,1.54E2,4.4E1,8.1E1,6.5E1,2.59E2,6.8E1,3.8E1,2.19E2,1.05E2,2.54E2,3.5E1,6E1,1.5E1,1.4E2,2.4E1,7E1,8.4E1,7.1E1,1E1,2.38E2,2.1E1,6.1E1,7E0,1.9E2,2.9E1,1.3E1,9.2E1,2.45E2,9E0],"tree_param":{"num_deleted":"0","num_feature":"49","num_nodes":"59","size_leaf_vector":"1"}},{"base_weights":[-1.1594336E-2,-1.24376886E-1,1.6826291E-1,-2.0652013E-1,-2.94755E-2,1.6587947E-2,2.827529E-1,4.5265295E-2,-1.6900787E-2,3.081895E-1,-6.334809E-2,3.315447E-1,-3.904968E-2,1.5615766E-1,5.67075E-1,-7.6875645E-3,4.148111E-2,2.3806786E-4,5.93651E-1,-2.106953E-2,-1.9256068E-2,-0E0,7.1010125E-1,4.766794E-2,-2.1006328E-1,-1.1837796E-1,2.0793091E-1,7.8539276E-1,2.5204748E-1,-0E0,5.4451317E-2,1.2236175E-1,-7.068284E-2,-0E0,7.6828025E-2,1.347923E-1,-1.5100725E-1,4.8845663E-4,-3.054177E-1,-3.1428486E-1,1.9020319E-2,-6.8313237E-3,2.4760439E-1,8.455394E-1,-0E0,4.7770524E-1,-1.9658286E-4,1.7322721E-2,-1.4499987E-2,-1.0917947E-2,3.6884465E-3,-5.5425535E-3,1.5868412E-2,1.2490639E-2,-2.9783983E-2,-4.7797423E-2,-5.02288E-3,-3.6925662E-2,5.655209E-3,2.561548E-2,1.3728404E-3,6.5038994E-2,-0E0,-6.4375764E-3,5.1154077E-2],"categories":[],"categories_nodes":[],"categories_segments":[],"categories_sizes":[],"default_left":[0,1,0,0,0,0,0,0,0,0,0,0,0,0,0,0,0,0,0,0,0,0,0,0,0,0,0,1,0,0,0,0,0,0,0,0,0,0,0,0,0,0,1,1,0,0,0,0,0,0,0,0,0,0,0,0,0,0,0,0,0,0,0,0,0],"id":14,"left_children":[1,3,5,7,9,11,13,15,-1,17,19,21,23,25,27,-1,-1,-1,29,-1,31,-1,33,35,37,39,41,43,45,-1,-1,47,49,-1,-1,51,53,-1,55,57,-1,-1,59,61,-1,63,-1,-1,-1,-1,-1,-1,-1,-1,-1,-1,-1,-1,-1,-1,-1,-1,-1,-1,-1],"loss_changes":[8.144076E1,1.8292492E1,2.5302631E1,8.27549E0,1.2702049E1,1.3457117E1,2.6868591E1,1.0134387E1,0E0,5.8716497E0,9.375799E0,1.1995263E1,9.4151E0,9.392813E0,1.0792389E1,0E0,0E0,0E0,4.9877596E0,0E0,6.732253E0,0E0,7.8300915E0,6.605875E0,5.7689447E0,7.624607E0,7.2874413E0,6.1029816E0,9.254097E0,0E0,0E0,8.893478E0,7.2260776E0,0E0,0E0,5.494594E0,9.991947E0,0E0,9.661253E0,7.393641E0,0E0,0E0,9.443363E0,5.303589E0,0E0,1.2364857E1,0E0,0E0,0E0,0E0,0E0,0E0,0E0,0E0,0E0,0E0,0E0,0E0,0E0,0E0,0E0,0E0,0E0,0E0,0E0],"parents":[2147483647,0,0,1,1,2,2,3,3,4,4,5,5,6,6,7,7,9,9,10,10,11,11,12,12,13,13,14,14,18,18,20,20,22,22,23,23,24,24,25,25,26,26,27,27,28,28,31,31,32,32,35,35,36,36,38,38,39,39,42,42,43,43,45,45],"right_children":[2,4,6,8,10,12,14,16,-1,18,20,22,24,26,28,-1,-1,-1,30,-1,32,-1,34,36,38,40,42,44,46,-1,-1,48,50,-1,-1,52,54,-1,56,58,-1,-1,60,62,-1,64,-1,-1,-1,-1,-1,-1,-1,-1,-1,-1,-1,-1,-1,-1,-1,-1,-1,-1,-1],"split_conditions":[1.7747124E3,1.2826448E1,2.1812096E1,1.01391E0,1.602195E3,2.6342446E-2,1.9193608E3,9.5052916E-1,-1.6900787E-2,1.1093664E-1,7.869988E-1,1.3300356E-1,1.4102522E-1,3.7438943E0,4.4898067E-2,-7.6875645E-3,4.148111E-2,2.3806786E-4,2.76476E0,-2.106953E-2,4.277024E0,-0E0,9.343625E-1,1.2110522E1,1.2936226E0,1.47417555E1,3.6932762E0,1.9363219E0,1.5368238E-1,-0E0,5.4451317E-2,1.2593597E0,1.7099589E3,-0E0,7.6828025E-2,1.1397808E0,1.098058E0,4.8845663E-4,1.7142062E0,6.8889374E2,1.9020319E-2,-6.8313237E-3,1.7496296E0,7.6523E2,-0E0,2.4767421E-2,-1.9658286E-4,1.7322721E-2,-1.4499987E-2,-1.0917947E-2,3.6884465E-3,-5.5425535E-3,1.5868412E-2,1.2490639E-2,-2.9783983E-2,-4.7797423E-2,-5.02288E-3,-3.6925662E-2,5.655209E-3,2.561548E-2,1.3728404E-3,6.5038994E-2,-0E0,-6.4375764E-3,5.1154077E-2],"split_indices":[4,35,40,29,23,6,4,32,0,15,32,25,25,8,15,0,0,0,8,0,36,0,33,35,32,35,36,24,6,0,0,11,4,0,0,30,24,0,29,37,0,0,33,37,0,6,0,0,0,0,0,0,0,0,0,0,0,0,0,0,0,0,0,0,0],"split_type":[0,0,0,0,0,0,0,0,0,0,0,0,0,0,0,0,0,0,0,0,0,0,0,0,0,0,0,0,0,0,0,0,0,0,0,0,0,0,0,0,0,0,0,0,0,0,0,0,0,0,0,0,0,0,0,0,0,0,0,0,0,0,0,0,0],"sum_hessian":[4.006E3,2.479E3,1.527E3,1.298E3,1.181E3,6.78E2,8.49E2,8.9E1,1.209E3,8.9E1,1.092E3,1.07E2,5.71E2,6.08E2,2.41E2,6.8E1,2.1E1,5.5E1,3.4E1,1.56E2,9.36E2,6.7E1,4E1,3.66E2,2.05E2,8.1E1,5.27E2,1.26E2,1.15E2,6E0,2.8E1,2.23E2,7.13E2,1.9E1,2.1E1,2.72E2,9.4E1,5.1E1,1.54E2,6.2E1,1.9E1,4.7E1,4.8E2,1.16E2,1E1,6.6E1,4.9E1,1.77E2,4.6E1,4.56E2,2.57E2,6E1,2.12E2,3.5E1,5.9E1,4.9E1,1.05E2,4.8E1,1.4E1,3.18E2,1.62E2,1.13E2,3E0,1.4E1,5.2E1],"tree_param":{"num_deleted":"0","num_feature":"49","num_nodes":"65","size_leaf_vector":"1"}},{"base_weights":[1.0720895E-2,-3.458818E-2,3.5763377E-1,-5.8681462E-2,3.0876178E-1,1.9119075E-1,5.3089494E-1,-1.6369574E-1,-5.239911E-3,-1.4571276E-2,3.622805E-1,7.168697E-1,7.400532E-2,6.1051327E-1,-0E0,-8.932131E-2,-2.0756256E-2,-1.2666878E-1,8.332476E-2,-0E0,4.4395095E-1,6.4715296E-2,-0E0,-9.150275E-3,1.9405541E-1,-0E0,4.960833E-2,-1.10149175E-1,2.7818955E-2,-1.5370525E-1,7.842243E-3,9.970517E-2,-2.6395421E-2,4.513262E-2,-0E0,3.1033215E-1,-0E0,1.8266674E-2,-1.0078172E-2,-1.8537305E-2,-5.4199817E-3,-9.704479E-4,1.1998743E-2,-0E0,3.3108924E-2,-1.6014371E-2,3.196761E-2],"categories":[],"categories_nodes":[],"categories_segments":[],"categories_sizes":[],"default_left":[0,0,0,0,0,0,0,0,0,0,0,0,0,0,0,0,0,0,0,0,0,0,0,0,0,0,0,0,0,0,0,0,0,0,0,0,0,0,0,0,0,0,0,0,0,0,0],"id":15,"left_children":[1,3,5,7,9,11,13,15,17,-1,19,21,23,25,-1,27,-1,29,31,-1,33,-1,-1,-1,35,-1,-1,37,-1,39,-1,41,-1,-1,-1,43,45,-1,-1,-1,-1,-1,-1,-1,-1,-1,-1],"loss_changes":[6.440625E1,2.8289726E1,9.541756E0,1.788594E1,7.371628E0,1.2581829E1,1.1256512E1,7.6639347E0,2.4368458E1,0E0,5.4247704E0,5.0747204E0,6.1641397E0,8.347229E0,0E0,6.0383244E0,0E0,6.4611826E0,8.415455E0,0E0,9.875053E0,0E0,0E0,0E0,4.8673983E0,0E0,0E0,6.3251715E0,0E0,5.3421135E0,0E0,9.5425825E0,0E0,0E0,0E0,6.429017E0,5.608741E0,0E0,0E0,0E0,0E0,0E0,0E0,0E0,0E0,0E0,0E0],"parents":[2147483647,0,0,1,1,2,2,3,3,4,4,5,5,6,6,7,7,8,8,10,10,11,11,12,12,13,13,15,15,17,17,18,18,20,20,24,24,27,27,29,29,31,31,35,35,36,36],"right_children":[2,4,6,8,10,12,14,16,18,-1,20,22,24,26,-1,28,-1,30,32,-1,34,-1,-1,-1,36,-1,-1,38,-1,40,-1,42,-1,-1,-1,44,46,-1,-1,-1,-1,-1,-1,-1,-1,-1,-1],"split_conditions":[3.0200325E1,1.8810647E0,1.3201552E1,3.6602676E0,1.5796775E1,4.8854837E0,1.3777186E0,1.6976033E0,1.1688079E0,-1.4571276E-2,9E0,2.2552633E0,7.5900354E2,6.829299E2,-0E0,3.2785523E-1,-2.0756256E-2,1.1892716E0,2.947108E1,-0E0,2.0581919E1,6.4715296E-2,-0E0,-9.150275E-3,6.532494E0,-0E0,4.960833E-2,2.4936485E0,2.7818955E-2,4.3401027E0,7.842243E-3,1.7237897E3,-2.6395421E-2,4.513262E-2,-0E0,1.968343E3,1.4278901E0,1.8266674E-2,-1.0078172E-2,-1.8537305E-2,-5.4199817E-3,-9.704479E-4,1.1998743E-2,-0E0,3.3108924E-2,-1.6014371E-2,3.196761E-2],"split_indices":[12,38,35,36,12,8,20,30,5,0,1,5,9,9,0,34,0,13,12,0,31,0,0,0,8,0,0,8,0,17,0,4,0,0,0,4,38,0,0,0,0,0,0,0,0,0,0],"split_type":[0,0,0,0,0,0,0,0,0,0,0,0,0,0,0,0,0,0,0,0,0,0,0,0,0,0,0,0,0,0,0,0,0,0,0,0,0,0,0,0,0,0,0,0,0,0,0],"sum_hessian":[3.99E3,3.525E3,4.65E2,3.313E3,2.12E2,2.6E2,2.05E2,1.083E3,2.23E3,1E1,2.02E2,3.2E1,2.28E2,1.83E2,2.2E1,6.96E2,3.87E2,9.6E2,1.27E3,4.3E1,1.59E2,2.5E1,7E0,7.2E1,1.56E2,1.5E1,1.68E2,6.82E2,1.4E1,8.8E2,8E1,1.241E3,2.9E1,1.06E2,5.3E1,1.06E2,5E1,3E1,6.52E2,3.64E2,5.16E2,4.21E2,8.2E2,2.8E1,7.8E1,4.2E1,8E0],"tree_param":{"num_deleted":"0","num_feature":"49","num_nodes":"47","size_leaf_vector":"1"}},{"base_weights":[4.890344E-3,-8.884165E-2,1.680571E-1,-1.08377986E-1,1.6066322E-1,7.899619E-2,3.7458682E-1,-6.7284E-2,-2.5540268E-1,-5.602056E-3,1.969535E-2,3.5572618E-1,2.8299913E-2,-1.7700744E-3,4.6937618E-1,4.6383183E-2,-1.0599483E-1,-3.583817E-1,-9.36162E-2,7.168697E-1,1.7938553E-3,1.0181986E-1,-1.3677084E-1,1.3304646E-1,5.508997E-1,2.0368502E-1,-1.20064974E-1,-1.9679332E-1,-3.185363E-2,-0E0,-2.9557724E-2,4.656882E-3,-2.1105982E-1,5.9202354E-2,-0E0,2.4771675E-1,-0E0,-2.0249243E-1,1.678661E-2,-3.5875244E-3,2.5373377E-2,6.4040387E-1,1.0418695E-2,3.322343E-2,-5.194542E-4,-0E0,-2.3756944E-2,-2.1586245E-2,-4.8359986E-3,-1.8244667E-2,1.0521048E-3,-2.5420988E-2,2.6252044E-3,-0E0,3.2632973E-2,1.8079914E-2,-5.996578E-3,-0E0,-2.1714704E-2,6.771525E-2,2.4794847E-2,-1.9457014E-2,2.1961063E-2],"categories":[],"categories_nodes":[],"categories_segments":[],"categories_sizes":[],"default_left":[0,1,0,0,0,0,0,0,0,0,0,0,0,0,0,1,0,0,0,0,0,0,0,0,1,1,0,1,1,0,0,0,0,0,0,0,0,0,0,0,0,0,0,0,0,0,0,0,0,0,0,0,0,0,0,0,0,0,0,0,0,0,0],"id":16,"left_children":[1,3,5,7,9,11,13,15,17,-1,-1,19,21,-1,23,25,27,29,31,33,-1,35,37,39,41,43,45,47,49,-1,-1,-1,51,-1,-1,53,55,57,-1,-1,-1,59,61,-1,-1,-1,-1,-1,-1,-1,-1,-1,-1,-1,-1,-1,-1,-1,-1,-1,-1,-1,-1],"loss_changes":[6.1756664E1,1.227355E1,2.4977634E1,1.2736315E1,5.3252363E0,1.3103228E1,1.829147E1,8.621784E0,5.8693466E0,0E0,0E0,1.45155945E1,1.1149888E1,0E0,6.0594177E0,1.2561832E1,8.6288395E0,5.708E0,4.8285737E0,5.8271713E0,0E0,1.0149885E1,6.748118E0,4.9853573E0,1.026001E1,1.5079199E1,6.0342607E0,6.0045605E0,9.313677E0,0E0,0E0,0E0,6.2173204E0,0E0,0E0,1.4074564E1,7.7811875E0,4.9177036E0,0E0,0E0,0E0,1.0774513E1,5.1956973E0,0E0,0E0,0E0,0E0,0E0,0E0,0E0,0E0,0E0,0E0,0E0,0E0,0E0,0E0,0E0,0E0,0E0,0E0,0E0,0E0],"parents":[2147483647,0,0,1,1,2,2,3,3,4,4,5,5,6,6,7,7,8,8,11,11,12,12,14,14,15,15,16,16,17,17,18,18,19,19,21,21,22,22,23,23,24,24,25,25,26,26,27,27,28,28,32,32,35,35,36,36,37,37,41,41,42,42],"right_children":[2,4,6,8,10,12,14,16,18,-1,-1,20,22,-1,24,26,28,30,32,34,-1,36,38,40,42,44,46,48,50,-1,-1,-1,52,-1,-1,54,56,58,-1,-1,-1,60,62,-1,-1,-1,-1,-1,-1,-1,-1,-1,-1,-1,-1,-1,-1,-1,-1,-1,-1,-1,-1],"split_conditions":[1.5325592E0,1.8810647E0,1.5542091E0,1E0,1.174199E0,4.936083E2,6.0044226E2,1.1697848E0,1.2791861E1,-5.602056E-3,1.969535E-2,4.2514108E-2,1.8484974E3,-1.7700744E-3,1.3675816E1,6.166515E2,2.3632015E1,7.821406E-1,1.35836E0,2.0420978E3,1.7938553E-3,1.6E1,1.5884093E0,2.2E1,6.261593E2,2.3149353E1,1.177871E0,9.76859E-2,9.705961E-1,-0E0,-2.9557724E-2,4.656882E-3,4.0479436E0,5.9202354E-2,-0E0,1.3484605E1,1.1294219E1,6.2306393E-2,1.678661E-2,-3.5875244E-3,2.5373377E-2,6.6501685E2,6.4450336E2,3.322343E-2,-5.194542E-4,-0E0,-2.3756944E-2,-2.1586245E-2,-4.8359986E-3,-1.8244667E-2,1.0521048E-3,-2.5420988E-2,2.6252044E-3,-0E0,3.2632973E-2,1.8079914E-2,-5.996578E-3,-0E0,-2.1714704E-2,6.771525E-2,2.4794847E-2,-1.9457014E-2,2.1961063E-2],"split_indices":[5,38,38,2,22,18,9,20,35,0,0,34,23,0,35,28,21,10,39,23,0,1,22,1,28,40,41,25,33,0,0,0,27,0,0,7,35,25,0,0,0,37,28,0,0,0,0,0,0,0,0,0,0,0,0,0,0,0,0,0,0,0,0],"split_type":[0,0,0,0,0,0,0,0,0,0,0,0,0,0,0,0,0,0,0,0,0,0,0,0,0,0,0,0,0,0,0,0,0,0,0,0,0,0,0,0,0,0,0,0,0,0,0,0,0,0,0,0,0,0,0,0,0,0,0,0,0,0,0],"sum_hessian":[3.997E3,2.524E3,1.473E3,2.362E3,1.62E2,1.053E3,4.2E2,1.88E3,4.82E2,3.8E1,1.24E2,1.41E2,9.12E2,7.3E1,3.47E2,4.48E2,1.432E3,2.71E2,2.11E2,5.6E1,8.5E1,6.52E2,2.6E2,8.3E1,2.64E2,2.43E2,2.05E2,6.1E2,8.22E2,2E1,2.51E2,7.6E1,1.35E2,5.2E1,4E0,2.68E2,3.84E2,2.34E2,2.6E1,3.7E1,4.6E1,2.18E2,4.6E1,1.17E2,1.26E2,1.26E2,7.9E1,3.27E2,2.83E2,1.55E2,6.67E2,9.7E1,3.8E1,1.18E2,1.5E2,8.7E1,2.97E2,7.1E1,1.63E2,9.7E1,1.21E2,1.6E1,3E1],"tree_param":{"num_deleted":"0","num_feature":"49","num_nodes":"63","size_leaf_vector":"1"}},{"base_weights":[-0E0,-1.04816765E-1,1.8554899E-1,-8.2210585E-4,-1.2329287E-2,2.4019484E-1,-1.820594E-1,-2.9684385E-2,1.1354166E-2,1.891632E-1,5.4597574E-1,-0E0,-2.458429E-2,-9.586373E-3,6.3483015E-2,1.303867E-1,4.7395813E-1,7.316059E-1,1.6322647E-3,-5.4866998E-3,1.2498059E-1,3.7366202E-1,8.202341E-2,-0E0,5.6916416E-1,6.539271E-2,4.919135E-3,1.6636431E-2,-0E0,4.0868197E-2,-0E0,9.485546E-3,-1.209184E-2,1.8304095E-2,6.1026238E-2],"categories":[],"categories_nodes":[],"categories_segments":[],"categories_sizes":[],"default_left":[0,0,0,0,0,0,0,0,0,0,1,0,0,0,0,0,0,0,0,0,0,0,0,0,0,0,0,0,0,0,0,0,0,0,0],"id":17,"left_children":[1,3,5,7,-1,9,11,-1,13,15,17,-1,-1,-1,19,21,23,25,-1,-1,27,29,31,-1,33,-1,-1,-1,-1,-1,-1,-1,-1,-1,-1],"loss_changes":[7.809298E1,1.5708048E1,2.9906471E1,6.6038237E0,0E0,1.5802055E1,5.5827637E0,0E0,6.8246E0,1.5587078E1,1.2657707E1,0E0,0E0,0E0,6.4794044E0,8.969969E0,8.093971E0,7.1276817E0,0E0,0E0,6.311142E0,1.0047567E1,9.46561E0,0E0,5.526146E0,0E0,0E0,0E0,0E0,0E0,0E0,0E0,0E0,0E0,0E0],"parents":[2147483647,0,0,1,1,2,2,3,3,5,5,6,6,8,8,9,9,10,10,14,14,15,15,16,16,17,17,20,20,21,21,22,22,24,24],"right_children":[2,4,6,8,-1,10,12,-1,14,16,18,-1,-1,-1,20,22,24,26,-1,-1,28,30,32,-1,34,-1,-1,-1,-1,-1,-1,-1,-1,-1,-1],"split_conditions":[1.7853744E3,1.7021614E3,1.907414E3,9.666857E-1,-1.2329287E-2,1.7644184E0,1.886781E0,-2.9684385E-2,9.8963773E-1,1.4261596E1,1.2975875E0,-0E0,-2.458429E-2,-9.586373E-3,9.2909527E-1,4.936083E2,1.818597E3,1.1947784E-1,1.6322647E-3,-5.4866998E-3,1.4071994E0,9.8307006E-2,1E0,-0E0,1.1457623E0,6.539271E-2,4.919135E-3,1.6636431E-2,-0E0,4.0868197E-2,-0E0,9.485546E-3,-1.209184E-2,1.8304095E-2,6.1026238E-2],"split_indices":[4,23,23,39,0,38,32,0,10,26,29,0,0,0,30,18,4,25,0,0,20,25,43,0,39,0,0,0,0,0,0,0,0,0,0],"split_type":[0,0,0,0,0,0,0,0,0,0,0,0,0,0,0,0,0,0,0,0,0,0,0,0,0,0,0,0,0,0,0,0,0,0,0],"sum_hessian":[3.983E3,2.536E3,1.447E3,9.79E2,1.557E3,1.273E3,1.74E2,3.1E1,9.48E2,1.116E3,1.57E2,7.8E1,9.6E1,2.29E2,7.19E2,9.49E2,1.67E2,1.07E2,5E1,1.99E2,5.2E2,1.32E2,8.17E2,2.9E1,1.38E2,7.9E1,2.8E1,2.78E2,2.42E2,8.8E1,4.4E1,7.06E2,1.11E2,7.7E1,6.1E1],"tree_param":{"num_deleted":"0","num_feature":"49","num_nodes":"35","size_leaf_vector":"1"}},{"base_weights":[1.7719261E-2,-8.05006E-2,1.4641117E-1,-2.6740825E-1,-5.025753E-2,2.6189663E-2,2.6208586E-1,-0E0,-2.5641968E-2,-2.6317066E-1,-1.860894E-2,-3.5809226E-2,3.355695E-1,8.440332E-2,4.03327E-1,1.6562459E-4,-3.2989946E-1,-9.335248E-2,5.192179E-2,2.8051966E-1,-7.901104E-2,4.4528532E-1,-0E0,1.7119777E-1,-1.6747287E-1,-5.915137E-4,4.4994834E-1,-2.9663436E-2,-0E0,-0E0,-1.4664064E-1,-1.03271514E-1,1.14535235E-1,5.672976E-1,-1.1288847E-2,1.7468864E-1,-1.2641694E-1,6.403305E-1,-0E0,2.5534883E-1,-5.5533503E-3,-2.2659246E-2,7.5063775E-3,5.130109E-1,1.2079007E-4,-1.9650886E-2,1.1215873E-2,1.4350859E-3,-1.3837439E-2,2.9609825E-3,-2.1961536E-2,2.1026712E-2,-0E0,-0E0,5.9678506E-2,4.220367E-2,-2.3877134E-3,-1.277842E-2,3.2198133E-3,5.6037955E-2,-0E0,-1.4006169E-2,2.4595201E-2,-0E0,2.797735E-2,3.9771397E-2,-0E0],"categories":[],"categories_nodes":[],"categories_segments":[],"categories_sizes":[],"default_left":[0,0,0,0,0,0,0,0,0,0,0,0,0,0,0,0,0,1,0,0,0,0,0,1,0,0,0,0,0,0,0,1,0,0,0,0,0,0,0,0,0,0,0,1,0,0,0,0,0,0,0,0,0,0,0,0,0,0,0,0,0,0,0,0,0,0,0],"id":18,"left_children":[1,3,5,7,9,11,13,-1,-1,15,17,19,21,23,25,-1,27,29,31,33,35,37,-1,39,41,-1,43,-1,-1,45,47,49,51,53,-1,55,57,59,61,63,-1,-1,-1,65,-1,-1,-1,-1,-1,-1,-1,-1,-1,-1,-1,-1,-1,-1,-1,-1,-1,-1,-1,-1,-1,-1,-1],"loss_changes":[5.0898373E1,1.1197261E1,2.3022957E1,5.0067387E0,1.1979309E1,1.8475386E1,1.9435516E1,0E0,0E0,5.643379E0,9.417211E0,9.366172E0,7.654875E0,9.286404E0,1.1010651E1,0E0,4.814356E0,4.9118524E0,8.631957E0,1.2336443E1,8.009594E0,8.686213E0,0E0,7.695134E0,4.8386602E0,0E0,9.922836E0,0E0,0E0,1.22464E1,4.740903E0,7.796321E0,1.3834805E1,7.810648E0,0E0,1.0295177E1,5.260764E0,7.6243896E0,4.641637E0,6.797552E0,0E0,0E0,0E0,5.048897E0,0E0,0E0,0E0,0E0,0E0,0E0,0E0,0E0,0E0,0E0,0E0,0E0,0E0,0E0,0E0,0E0,0E0,0E0,0E0,0E0,0E0,0E0,0E0],"parents":[2147483647,0,0,1,1,2,2,3,3,4,4,5,5,6,6,9,9,10,10,11,11,12,12,13,13,14,14,16,16,17,17,18,18,19,19,20,20,21,21,23,23,24,24,26,26,29,29,30,30,31,31,32,32,33,33,35,35,36,36,37,37,38,38,39,39,43,43],"right_children":[2,4,6,8,10,12,14,-1,-1,16,18,20,22,24,26,-1,28,30,32,34,36,38,-1,40,42,-1,44,-1,-1,46,48,50,52,54,-1,56,58,60,62,64,-1,-1,-1,66,-1,-1,-1,-1,-1,-1,-1,-1,-1,-1,-1,-1,-1,-1,-1,-1,-1,-1,-1,-1,-1,-1,-1],"split_conditions":[1.7514559E3,1.613019E3,1E0,5.053914E2,8.762542E0,1.48924E1,1.4800525E0,-0E0,-2.5641968E-2,3.5370314E0,1E0,1.0643673E-2,1.3931789E0,1.5198783E0,5.1007843E2,1.6562459E-4,1.5664747E0,1.842744E1,4.0537415E0,1.8661628E0,2.4681244E0,2.1086643E0,-0E0,2.6314919E1,1.559084E-1,-5.915137E-4,1.891085E3,-2.9663436E-2,-0E0,2.8816576E0,1.4160174E-2,2.2531576E1,1.3834063E1,6.1256006E2,-1.1288847E-2,3.5659902E0,4.514678E0,1.7442261E3,3.355593E0,1.1398681E0,-5.5533503E-3,-2.2659246E-2,7.5063775E-3,2.1074727E0,1.2079007E-4,-1.9650886E-2,1.1215873E-2,1.4350859E-3,-1.3837439E-2,2.9609825E-3,-2.1961536E-2,2.1026712E-2,-0E0,-0E0,5.9678506E-2,4.220367E-2,-2.3877134E-3,-1.277842E-2,3.2198133E-3,5.6037955E-2,-0E0,-1.4006169E-2,2.4595201E-2,-0E0,2.797735E-2,3.9771397E-2,-0E0],"split_indices":[4,4,0,9,35,35,11,0,0,17,0,6,20,10,28,0,20,31,17,5,17,5,0,31,34,0,23,0,0,27,25,40,16,9,0,27,17,23,27,11,0,0,0,33,0,0,0,0,0,0,0,0,0,0,0,0,0,0,0,0,0,0,0,0,0,0,0],"split_type":[0,0,0,0,0,0,0,0,0,0,0,0,0,0,0,0,0,0,0,0,0,0,0,0,0,0,0,0,0,0,0,0,0,0,0,0,0,0,0,0,0,0,0,0,0,0,0,0,0,0,0,0,0,0,0,0,0,0,0,0,0,0,0,0,0,0,0],"sum_hessian":[3.986E3,2.243E3,1.743E3,2.82E2,1.961E3,8.79E2,8.64E2,7.7E1,2.05E2,2.27E2,1.734E3,7.27E2,1.52E2,4.03E2,4.61E2,3.4E1,1.93E2,8.71E2,8.63E2,6.9E1,6.58E2,1.21E2,3.1E1,3.15E2,8.8E1,3.8E1,4.23E2,1.57E2,3.6E1,2.95E2,5.76E2,2.26E2,6.37E2,4.6E1,2.3E1,8.5E1,5.73E2,7.5E1,4.6E1,2.48E2,6.7E1,6.8E1,2E1,3.61E2,6.2E1,9.6E1,1.99E2,9.3E1,4.83E2,1.21E2,1.05E2,2.66E2,3.71E2,1.6E1,3E1,3.1E1,5.4E1,4.7E2,1.03E2,6.4E1,1.1E1,2.4E1,2.2E1,9.3E1,1.55E2,3.44E2,1.7E1],"tree_param":{"num_deleted":"0","num_feature":"49","num_nodes":"67","size_leaf_vector":"1"}},{"base_weights":[6.4867054E-4,-7.6065876E-2,1.4599927E-1,-8.905135E-2,2.5762042E-2,1.8320407E-1,-1.1208213E-2,-1.4897513E-1,-3.921925E-2,2.4365631E-1,-9.02571E-2,-9.819797E-2,-2.1574676E-2,-2.6436922E-1,-9.0387305E-3,4.738121E-1,1.5975751E-1,4.842756E-3,-1.5841091E-2,-1.4463761E-1,1.2437086E-2,2.4301982E-2,-3.3912587E-1,2.7735526E-2,-1.4618345E-1,5.611802E-1,-0E0,1.048681E-1,3.8831696E-1,-1.4318069E-2,-0E0,1.1095726E-2,-1.0225685E-2,-3.3186078E-2,-0E0,8.216372E-3,-6.5456983E-3,-1.9014737E-2,-0E0,-0E0,4.5593727E-2,1.3321299E-2,-1.3994162E-2,-0E0,4.485986E-2],"categories":[],"categories_nodes":[],"categories_segments":[],"categories_sizes":[],"default_left":[0,1,0,0,0,1,0,0,0,0,0,0,0,0,0,1,0,0,0,0,0,0,0,0,1,0,0,0,0,0,0,0,0,0,0,0,0,0,0,0,0,0,0,0,0],"id":19,"left_children":[1,3,5,7,-1,9,-1,11,13,15,17,19,-1,21,23,25,27,-1,-1,29,31,-1,33,35,37,39,-1,41,43,-1,-1,-1,-1,-1,-1,-1,-1,-1,-1,-1,-1,-1,-1,-1,-1],"loss_changes":[4.5115074E1,1.3532596E1,1.5993652E1,6.7259502E0,0E0,2.1861206E1,0E0,6.1076202E0,8.583638E0,1.6871288E1,5.1110477E0,5.0174093E0,0E0,7.8524942E0,7.124882E0,1.0878769E1,7.4893665E0,0E0,0E0,5.3153667E0,5.1119637E0,0E0,4.718567E0,9.992745E0,4.958231E0,7.883049E0,0E0,1.5264507E1,1.0152758E1,0E0,0E0,0E0,0E0,0E0,0E0,0E0,0E0,0E0,0E0,0E0,0E0,0E0,0E0,0E0,0E0],"parents":[2147483647,0,0,1,1,2,2,3,3,5,5,7,7,8,8,9,9,10,10,11,11,13,13,14,14,15,15,16,16,19,19,20,20,22,22,23,23,24,24,25,25,27,27,28,28],"right_children":[2,4,6,8,-1,10,-1,12,14,16,18,20,-1,22,24,26,28,-1,-1,30,32,-1,34,36,38,40,-1,42,44,-1,-1,-1,-1,-1,-1,-1,-1,-1,-1,-1,-1,-1,-1,-1,-1],"split_conditions":[1.7879312E3,3.1672705E1,2.5078344E1,1.0178818E0,2.5762042E-2,1.9887507E0,-1.1208213E-2,3.4751866E0,1.0173719E0,1.1E1,1.8263116E0,3.1807742E0,-2.1574676E-2,1.4181604E1,2.659682E1,1.7917265E-1,2.4703081E1,4.842756E-3,-1.5841091E-2,1.1402666E-1,1.2822506E-1,2.4301982E-2,1.37542515E1,1.4244097E0,9.5225625E-2,1.3125175E0,-0E0,4.2672915E0,1.4786544E1,-1.4318069E-2,-0E0,1.1095726E-2,-1.0225685E-2,-3.3186078E-2,-0E0,8.216372E-3,-6.5456983E-3,-1.9014737E-2,-0E0,-0E0,4.5593727E-2,1.3321299E-2,-1.3994162E-2,-0E0,4.485986E-2],"split_indices":[4,40,21,13,0,24,0,8,20,1,5,8,0,21,31,34,31,0,0,6,15,0,35,41,34,5,0,27,7,0,0,0,0,0,0,0,0,0,0,0,0,0,0,0,0],"split_type":[0,0,0,0,0,0,0,0,0,0,0,0,0,0,0,0,0,0,0,0,0,0,0,0,0,0,0,0,0,0,0,0,0,0,0,0,0,0,0,0,0,0,0,0,0],"sum_hessian":[4E3,2.601E3,1.399E3,2.541E3,6E1,1.26E3,1.39E2,1.105E3,1.436E3,1.046E3,2.14E2,8.5E2,2.55E2,1.44E2,1.292E3,2.54E2,7.92E2,8.1E1,1.33E2,6.25E2,2.25E2,6E0,1.38E2,9.99E2,2.93E2,2.13E2,4.1E1,6.65E2,1.27E2,4.85E2,1.4E2,1.33E2,9.2E1,9.8E1,4E1,6.04E2,3.95E2,1.63E2,1.3E2,1.8E1,1.95E2,5.44E2,1.21E2,5.3E1,7.4E1],"tree_param":{"num_deleted":"0","num_feature":"49","num_nodes":"45","size_leaf_vector":"1"}},{"base_weights":[-0E0,-6.424865E-2,1.2824151E-1,-1.3430181E-1,5.430137E-4,-6.1347768E-2,2.0792583E-1,-1.5293735E-1,1.0256647E-2,-2.1911193E-2,2.5474655E-2,5.7514522E-2,-1.5144592E-2,6.80339E-2,3.424044E-1,-2.1325861E-1,-5.311073E-2,-0E0,1.895425E-2,2.0558214E-1,-1.2077035E-2,-9.357466E-3,3.5915866E-1,6.3005704E-1,2.070664E-1,-1.9579697E-2,-4.085071E-2,2.6387858E-1,-1.272897E-1,1.3507472E-1,-4.876796E-2,3.2813266E-2,-0E0,1.3223796E-1,-2.329495E-1,-0E0,4.9769324E-1,-0E0,7.236734E-1,5.703116E-1,7.603968E-2,3.6598977E-3,-1.8217737E-2,-0E0,3.8824238E-2,1.3627248E-2,-1.2748201E-2,1.3928704E-2,-1.9681955E-2,-1.5966858E-4,-2.1646045E-2,-1.7688446E-2,1.9288164E-2,1.887289E-2,-3.9744824E-3,-2.6623577E-2,-0E0,6.0210932E-2,-0E0,6.328223E-2,-0E0,-0E0,5.1619492E-2,-1.36383455E-2,2.0532452E-2],"categories":[],"categories_nodes":[],"categories_segments":[],"categories_sizes":[],"default_left":[0,0,0,0,0,0,0,0,0,0,0,0,0,0,1,0,0,0,0,0,0,0,0,0,0,0,0,0,0,0,0,0,0,0,0,0,1,0,0,0,0,0,0,0,0,0,0,0,0,0,0,0,0,0,0,0,0,0,0,0,0,0,0,0,0],"id":20,"left_children":[1,3,5,7,9,11,13,15,-1,-1,17,19,-1,21,23,25,27,29,-1,31,-1,33,35,37,39,-1,41,43,45,47,49,-1,51,53,55,-1,57,-1,59,61,63,-1,-1,-1,-1,-1,-1,-1,-1,-1,-1,-1,-1,-1,-1,-1,-1,-1,-1,-1,-1,-1,-1,-1,-1],"loss_changes":[3.313112E1,1.2791074E1,2.1012266E1,6.997219E0,9.034287E0,7.3777676E0,1.6064651E1,6.295826E0,0E0,0E0,6.815026E0,7.1082E0,0E0,1.2829042E1,1.3474216E1,5.2931595E0,1.1787385E1,8.099995E0,0E0,8.445306E0,0E0,1.310949E1,5.725787E0,1.09633255E1,1.3159741E1,0E0,4.8050547E0,8.477049E0,6.3788967E0,7.257187E0,8.456709E0,0E0,5.12304E0,6.372216E0,5.767417E0,0E0,9.824511E0,0E0,1.0009338E1,6.9068375E0,1.5270056E1,0E0,0E0,0E0,0E0,0E0,0E0,0E0,0E0,0E0,0E0,0E0,0E0,0E0,0E0,0E0,0E0,0E0,0E0,0E0,0E0,0E0,0E0,0E0,0E0],"parents":[2147483647,0,0,1,1,2,2,3,3,4,4,5,5,6,6,7,7,10,10,11,11,13,13,14,14,15,15,16,16,17,17,19,19,21,21,22,22,23,23,24,24,26,26,27,27,28,28,29,29,30,30,32,32,33,33,34,34,36,36,38,38,39,39,40,40],"right_children":[2,4,6,8,10,12,14,16,-1,-1,18,20,-1,22,24,26,28,30,-1,32,-1,34,36,38,40,-1,42,44,46,48,50,-1,52,54,56,-1,58,-1,60,62,64,-1,-1,-1,-1,-1,-1,-1,-1,-1,-1,-1,-1,-1,-1,-1,-1,-1,-1,-1,-1,-1,-1,-1,-1],"split_conditions":[2.3538912E1,1E0,3.6344419E0,1.7513926E0,7.408729E-1,1.7911396E1,1E0,1.9917503E1,1.0256647E-2,-2.1911193E-2,2.8228403E1,7.967666E2,-1.5144592E-2,1.5262586E1,5.899178E2,1.2555014E0,5.326423E2,1.9268526E1,1.895425E-2,5.30142E2,-1.2077035E-2,4.4776187E0,1.0254396E0,9.2749286E-1,1.0787457E-2,-1.9579697E-2,6.5836316E2,2.5022121E1,2.0243288E1,4.6797576E0,1.9613696E0,3.2813266E-2,1.0710362E0,2.0153246E1,1.5366299E0,-0E0,1.3640151E0,-0E0,1.3931789E0,4.7866797E0,2E1,3.6598977E-3,-1.8217737E-2,-0E0,3.8824238E-2,1.3627248E-2,-1.2748201E-2,1.3928704E-2,-1.9681955E-2,-1.5966858E-4,-2.1646045E-2,-1.7688446E-2,1.9288164E-2,1.887289E-2,-3.9744824E-3,-2.6623577E-2,-0E0,6.0210932E-2,-0E0,6.328223E-2,-0E0,-0E0,5.1619492E-2,-1.36383455E-2,2.0532452E-2],"split_indices":[12,0,36,39,39,21,0,12,0,0,40,9,0,35,37,5,28,40,0,18,0,36,29,32,15,0,18,40,12,8,14,0,19,21,39,0,29,0,20,8,1,0,0,0,0,0,0,0,0,0,0,0,0,0,0,0,0,0,0,0,0,0,0,0,0],"split_type":[0,0,0,0,0,0,0,0,0,0,0,0,0,0,0,0,0,0,0,0,0,0,0,0,0,0,0,0,0,0,0,0,0,0,0,0,0,0,0,0,0,0,0,0,0,0,0,0,0,0,0,0,0,0,0,0,0,0,0,0,0,0,0,0,0],"sum_hessian":[4.009E3,2.678E3,1.331E3,1.315E3,1.363E3,3.78E2,9.53E2,1.25E3,6.5E1,8.4E1,1.279E3,1.93E2,1.85E2,4.9E2,4.63E2,7.45E2,5.05E2,1.172E3,1.07E2,1.28E2,6.5E1,3.82E2,1.08E2,1.27E2,3.36E2,5.49E2,1.96E2,8E1,4.25E2,3.23E2,8.49E2,6.3E1,6.5E1,2.24E2,1.58E2,3.3E1,7.5E1,1.2E1,1.15E2,7.2E1,2.64E2,1.26E2,7E1,3.6E1,4.4E1,3.8E1,3.87E2,2.99E2,2.4E1,7.36E2,1.13E2,4.2E1,2.3E1,1.47E2,7.7E1,1.05E2,5.3E1,3.7E1,3.8E1,9.3E1,2.2E1,1.3E1,5.9E1,1.06E2,1.58E2],"tree_param":{"num_deleted":"0","num_feature":"49","num_nodes":"65","size_leaf_vector":"1"}},{"base_weights":[8.906221E-3,-1.7086485E-2,3.6104605E-1,-1.505784E-1,1.3780179E-2,5.6679714E-1,1.4173831E-1,-1.3540156E-2,1.8543828E-2,1.16020955E-1,-2.5395133E-2,2.1881042E-1,9.0532166E-1,-1.1110221E-2,2.6660505E-1,1.6339224E-2,-1.3252505E-2,1.8752407E-1,-6.9979504E-2,-5.7729464E-2,1.647572E-1,3.2562837E-2,-2.8230138E-3,1.0620685E0,-0E0,-2.3594194E-3,3.914289E-1,2.3216496E-1,-6.1402857E-2,-1.4739577E-1,2.3498924E-2,2.3559006E-2,-7.168628E-2,3.544432E-3,5.323599E-1,-0E0,1.1665925E0,4.2572647E-2,-0E0,7.7035716E-3,2.982767E-2,1.5394365E-2,-2.766923E-2,-2.5422145E-2,5.489081E-4,-6.594623E-3,1.800499E-2,-5.8218994E-4,4.809072E-2,9.831919E-2,-0E0],"categories":[],"categories_nodes":[],"categories_segments":[],"categories_sizes":[],"default_left":[0,0,0,0,0,0,0,0,0,1,0,0,0,0,0,0,0,0,0,0,0,0,0,0,0,0,0,0,0,0,0,0,1,0,0,0,0,0,0,0,0,0,0,0,0,0,0,0,0,0,0],"id":21,"left_children":[1,3,5,7,9,11,13,-1,15,17,19,21,23,-1,25,-1,-1,27,29,31,33,-1,-1,35,-1,-1,37,39,41,43,-1,-1,45,-1,47,-1,49,-1,-1,-1,-1,-1,-1,-1,-1,-1,-1,-1,-1,-1,-1],"loss_changes":[3.7794136E1,1.5794204E1,8.941666E0,4.7528343E0,1.232947E1,8.884529E0,6.7222767E0,0E0,4.686499E0,1.2027175E1,1.2671091E1,6.745809E0,8.8921585E0,0E0,6.409603E0,0E0,0E0,7.978817E0,6.4936066E0,8.797022E0,9.683407E0,0E0,0E0,6.22628E0,0E0,0E0,5.3083906E0,9.616501E0,8.984222E0,7.7725573E0,0E0,0E0,9.4979105E0,0E0,6.7670536E0,0E0,4.818413E0,0E0,0E0,0E0,0E0,0E0,0E0,0E0,0E0,0E0,0E0,0E0,0E0,0E0,0E0],"parents":[2147483647,0,0,1,1,2,2,3,3,4,4,5,5,6,6,8,8,9,9,10,10,11,11,12,12,14,14,17,17,18,18,19,19,20,20,23,23,26,26,27,27,28,28,29,29,32,32,34,34,36,36],"right_children":[2,4,6,8,10,12,14,-1,16,18,20,22,24,-1,26,-1,-1,28,30,32,34,-1,-1,36,-1,-1,38,40,42,44,-1,-1,46,-1,48,-1,50,-1,-1,-1,-1,-1,-1,-1,-1,-1,-1,-1,-1,-1,-1],"split_conditions":[3.2823597E1,1.0837681E0,1.2682419E0,5.272839E0,1.1400136E0,1.1724107E0,1.3976027E0,-1.3540156E-2,1.4527166E-1,4.7895093E0,3.4E1,1.0762323E0,1.0859711E0,-1.1110221E-2,5.3223124E0,1.6339224E-2,-1.3252505E-2,2.2410817E0,1.8301718E0,1.024592E1,1.7793955E0,3.2562837E-2,-2.8230138E-3,9.96432E0,-0E0,-2.3594194E-3,2.0026912E3,1.8533E3,7.803427E-1,1.008846E0,2.3498924E-2,2.3559006E-2,5.856272E0,3.544432E-3,2.3005788E0,-0E0,1.3952762E0,4.2572647E-2,-0E0,7.7035716E-3,2.982767E-2,1.5394365E-2,-2.766923E-2,-2.5422145E-2,5.489081E-4,-6.594623E-3,1.800499E-2,-5.8218994E-4,4.809072E-2,9.831919E-2,-0E0],"split_indices":[12,38,30,8,20,29,30,0,25,36,1,29,22,0,8,0,0,5,39,16,38,0,0,26,0,0,4,4,20,22,0,0,36,0,27,0,32,0,0,0,0,0,0,0,0,0,0,0,0,0,0],"split_type":[0,0,0,0,0,0,0,0,0,0,0,0,0,0,0,0,0,0,0,0,0,0,0,0,0,0,0,0,0,0,0,0,0,0,0,0,0,0,0,0,0,0,0,0,0,0,0,0,0,0,0],"sum_hessian":[3.947E3,3.672E3,2.75E2,7.1E2,2.962E3,1.24E2,1.51E2,6.16E2,9.4E1,8.47E2,2.115E3,7.5E1,4.9E1,3.4E1,1.17E2,5.7E1,3.7E1,6.29E2,2.18E2,1.833E3,2.82E2,4.6E1,2.9E1,4.1E1,8E0,2.6E1,9.1E1,5.49E2,8E1,1.96E2,2.2E1,4.7E1,1.786E3,2.31E2,5.1E1,4E0,3.7E1,5.3E1,3.8E1,3.38E2,2.11E2,3.7E1,4.3E1,9.4E1,1.02E2,1.711E3,7.5E1,4E0,4.7E1,2.9E1,8E0],"tree_param":{"num_deleted":"0","num_feature":"49","num_nodes":"51","size_leaf_vector":"1"}},{"base_weights":[1.3067283E-2,-6.8872005E-2,1.2681174E-1,2.9918263E-4,-7.6755397E-3,3.5822427E-1,5.1065914E-2,3.8410947E-2,-2.0719732E-1,2.2852917E-1,7.183506E-1,-6.737199E-2,1.7212309E-1,-7.3059737E-3,1.2576495E-1,-2.8990595E-2,-0E0,1.0535944E-1,5.687731E-1,9.132891E-1,-0E0,-9.863038E-2,1.7477704E-2,-1.7846884E-2,3.1750113E-1,-0E0,2.8048947E-1,2.0764452E-1,-7.51157E-3,-4.655813E-3,7.64609E-1,9.61593E-1,-0E0,-0E0,-2.7757707E-1,1.4805329E-1,-1.4350311E-2,1.4061027E-2,4.6187127E-1,-0E0,3.0379264E-2,1.6466572E-3,4.238427E-2,6.383067E-2,-0E0,7.504193E-2,-0E0,2.2497075E-2,-3.3975323E-3,-2.9140154E-2,-0E0,3.519542E-2,-0E0,1.647249E-2,-2.6969159E-2,4.1021995E-2,-0E0],"categories":[],"categories_nodes":[],"categories_segments":[],"categories_sizes":[],"default_left":[0,0,0,0,0,0,0,0,0,0,0,0,0,0,0,0,0,0,0,0,0,0,0,0,0,0,0,0,0,0,0,0,0,0,0,0,0,0,0,0,0,0,0,0,0,0,0,0,0,0,0,0,0,0,0,0,0],"id":22,"left_children":[1,3,5,7,-1,9,11,13,15,17,19,21,23,-1,25,-1,-1,27,29,31,-1,33,-1,35,37,-1,39,41,-1,-1,43,45,-1,47,49,51,-1,53,55,-1,-1,-1,-1,-1,-1,-1,-1,-1,-1,-1,-1,-1,-1,-1,-1,-1,-1],"loss_changes":[3.713359E1,5.989126E0,2.744795E1,5.120156E0,0E0,1.2895065E1,1.9067814E1,7.97287E0,4.7882752E0,9.665895E0,1.4279499E1,5.6834154E0,1.9584959E1,0E0,7.6347213E0,0E0,0E0,6.002631E0,1.2475277E1,4.8611946E0,0E0,1.0118909E1,0E0,8.698832E0,1.4785027E1,0E0,7.945936E0,9.872773E0,0E0,0E0,4.7119217E0,4.7100525E0,0E0,5.324859E0,5.2422695E0,5.651402E0,0E0,1.1535955E1,9.531605E0,0E0,0E0,0E0,0E0,0E0,0E0,0E0,0E0,0E0,0E0,0E0,0E0,0E0,0E0,0E0,0E0,0E0,0E0],"parents":[2147483647,0,0,1,1,2,2,3,3,5,5,6,6,7,7,8,8,9,9,10,10,11,11,12,12,14,14,17,17,18,18,19,19,21,21,23,23,24,24,26,26,27,27,30,30,31,31,33,33,34,34,35,35,37,37,38,38],"right_children":[2,4,6,8,-1,10,12,14,16,18,20,22,24,-1,26,-1,-1,28,30,32,-1,34,-1,36,38,-1,40,42,-1,-1,44,46,-1,48,50,52,-1,54,56,-1,-1,-1,-1,-1,-1,-1,-1,-1,-1,-1,-1,-1,-1,-1,-1,-1,-1],"split_conditions":[1.7538541E3,1.6856736E3,1.6659686E3,1.4663621E0,-7.6755397E-3,1.9384901E3,1E0,2.7602063E-2,1.642123E3,2.0144985E0,1.3526782E-1,1.8127621E0,1.1427401E0,-7.3059737E-3,1.0980337E0,-2.8990595E-2,-0E0,1.7658036E0,2.5468252E0,3.6202243E-1,-0E0,1.3274791E0,1.7477704E-2,5.8190748E-2,2.3688042E1,-0E0,9.19929E-1,4.8340573E0,-7.51157E-3,-4.655813E-3,2.0853467E0,3.6831133E0,-0E0,2.4767421E-2,2.2237299E1,4.8459336E-2,-1.4350311E-2,2.227757E1,2.4535265E0,-0E0,3.0379264E-2,1.6466572E-3,4.238427E-2,6.383067E-2,-0E0,7.504193E-2,-0E0,2.2497075E-2,-3.3975323E-3,-2.9140154E-2,-0E0,3.519542E-2,-0E0,1.647249E-2,-2.6969159E-2,4.1021995E-2,-0E0],"split_indices":[4,23,23,5,0,4,0,6,23,33,15,38,41,0,5,0,0,33,27,34,0,41,0,34,12,0,30,36,0,0,5,17,0,6,31,6,0,31,5,0,0,0,0,0,0,0,0,0,0,0,0,0,0,0,0,0,0],"split_type":[0,0,0,0,0,0,0,0,0,0,0,0,0,0,0,0,0,0,0,0,0,0,0,0,0,0,0,0,0,0,0,0,0,0,0,0,0,0,0,0,0,0,0,0,0,0,0,0,0,0,0,0,0,0,0,0,0],"sum_hessian":[3.939E3,2.269E3,1.67E3,7.24E2,1.545E3,3.89E2,1.281E3,6.36E2,8.8E1,3.06E2,8.3E1,6.31E2,6.5E2,2.27E2,4.09E2,4.9E1,3.9E1,2.43E2,6.3E1,6.5E1,1.8E1,5.91E2,4E1,2.72E2,3.78E2,2.37E2,1.72E2,1.77E2,6.6E1,1.1E1,5.2E1,6.3E1,2E0,3.93E2,1.98E2,1.28E2,1.44E2,1.35E2,2.43E2,5E1,1.22E2,1.32E2,4.5E1,4.5E1,7E0,6E1,3E0,4E1,3.53E2,1.27E2,7.1E1,2.9E1,9.9E1,9.7E1,3.8E1,1.96E2,4.7E1],"tree_param":{"num_deleted":"0","num_feature":"49","num_nodes":"57","size_leaf_vector":"1"}},{"base_weights":[1.3713358E-2,-6.641261E-3,6.113811E-2,9.725316E-2,-5.4683494E-3,3.4235725E-1,7.428532E-2,5.1298624E-1,-0E0,5.348717E-2,3.2414746E-1,4.4367373E-2,-0E0,-1.978447E-1,7.51095E-2,-1.4941342E-4,4.7210068E-1,4.694197E-4,-3.2113545E-2,7.850451E-3,-3.220011E-3,-0E0,3.957484E-2],"categories":[],"categories_nodes":[],"categories_segments":[],"categories_sizes":[],"default_left":[0,0,0,0,0,0,0,0,0,0,0,0,0,0,0,0,0,0,0,0,0,0,0],"id":23,"left_children":[1,-1,3,5,-1,7,9,11,-1,13,15,-1,-1,17,19,-1,21,-1,-1,-1,-1,-1,-1],"loss_changes":[1.9449339E1,0E0,1.36454315E1,1.0348751E1,0E0,1.2193611E1,8.803206E0,5.0962677E0,0E0,1.0008322E1,8.808959E0,0E0,0E0,8.614586E0,6.9472494E0,0E0,5.045576E0,0E0,0E0,0E0,0E0,0E0,0E0],"parents":[2147483647,0,0,2,2,3,3,5,5,6,6,7,7,9,9,10,10,13,13,14,14,16,16],"right_children":[2,-1,4,6,-1,8,10,12,-1,14,16,-1,-1,18,20,-1,22,-1,-1,-1,-1,-1,-1],"split_conditions":[1.0361055E0,-6.641261E-3,2.70715E1,4.936083E2,-5.4683494E-3,1.3199893E-1,3.0165924E1,1.48924E1,-0E0,5.1403436E2,5.0672464E0,4.4367373E-2,-0E0,1.9380339E1,2.5407808E1,-1.4941342E-4,8.3561116E-1,4.694197E-4,-3.2113545E-2,7.850451E-3,-3.220011E-3,-0E0,3.957484E-2],"split_indices":[13,0,31,18,0,25,40,35,0,18,36,0,0,31,21,0,29,0,0,0,0,0,0],"split_type":[0,0,0,0,0,0,0,0,0,0,0,0,0,0,0,0,0,0,0,0,0,0,0],"sum_hessian":[3.963E3,1.212E3,2.751E3,2.199E3,5.52E2,1.61E2,2.038E3,1.13E2,4.8E1,1.908E3,1.3E2,9.4E1,1.9E1,1.29E2,1.779E3,3.4E1,9.6E1,6.4E1,6.5E1,1.439E3,3.4E2,6E0,9E1],"tree_param":{"num_deleted":"0","num_feature":"49","num_nodes":"23","size_leaf_vector":"1"}},{"base_weights":[1.9959409E-2,-4.925282E-2,1.1569384E-1,-1.4807078E-1,-9.282405E-3,7.097943E-2,4.0552017E-1,1.090617E-2,-1.437958E-2,3.697409E-2,-9.868349E-2,3.2024506E-1,1.2974667E-2,-1.2436567E-2,3.5619296E-2,2.2572117E-2,1.0642206E-2,-2.3514349E-2,-3.7269634E-3,4.422122E-1,-0E0,-2.7722364E-2,4.0346343E-2,9.7103044E-2,-7.15928E-2,-0E0,5.651241E-1,-4.895281E-2,1.346407E-1,-0E0,2.3843592E-2,-1.25436485E-2,7.846535E-4,-0E0,5.0181843E-2,1.7591057E-3,-1.3042592E-2,-1.2976735E-2,1.3953594E-2],"categories":[],"categories_nodes":[],"categories_segments":[],"categories_sizes":[],"default_left":[0,1,0,0,0,0,0,0,0,0,0,0,0,0,0,0,0,0,0,0,0,0,0,0,0,0,0,0,0,0,0,0,0,0,0,0,0,0,0],"id":24,"left_children":[1,3,5,7,9,11,13,-1,-1,15,17,19,21,-1,-1,-1,23,-1,-1,25,-1,-1,27,29,31,-1,33,35,37,-1,-1,-1,-1,-1,-1,-1,-1,-1,-1],"loss_changes":[2.6851534E1,8.37752E0,1.9757853E1,9.171057E0,7.2550993E0,2.022943E1,1.1539265E1,0E0,0E0,6.215659E0,4.658113E0,1.1727093E1,1.1877049E1,0E0,0E0,0E0,7.351327E0,0E0,0E0,1.08464775E1,0E0,0E0,1.0385834E1,1.1147247E1,4.7331367E0,0E0,9.000248E0,6.191621E0,1.05002775E1,0E0,0E0,0E0,0E0,0E0,0E0,0E0,0E0,0E0,0E0],"parents":[2147483647,0,0,1,1,2,2,3,3,4,4,5,5,6,6,9,9,10,10,11,11,12,12,16,16,19,19,22,22,23,23,24,24,26,26,27,27,28,28],"right_children":[2,4,6,8,10,12,14,-1,-1,16,18,20,22,-1,-1,-1,24,-1,-1,26,-1,-1,28,30,32,-1,34,36,38,-1,-1,-1,-1,-1,-1,-1,-1,-1,-1],"split_conditions":[1.7538541E3,1.121765E0,1.7644184E0,3.5063634E0,6.6158466E2,3.5429455E-2,1.3178876E1,1.090617E-2,-1.437958E-2,1.6186422E1,3.6831133E0,1.3366765E0,1.01378E1,-1.2436567E-2,3.5619296E-2,2.2572117E-2,6.2166394E2,-2.3514349E-2,-3.7269634E-3,1.0635788E1,-0E0,-2.7722364E-2,1E0,1.7038815E3,1E0,-0E0,7.4341637E-1,1.1099166E-1,9.443155E-1,-0E0,2.3843592E-2,-1.25436485E-2,7.846535E-4,-0E0,5.0181843E-2,1.7591057E-3,-1.3042592E-2,-1.2976735E-2,1.3953594E-2],"split_indices":[4,33,38,17,37,6,35,0,0,31,17,20,7,0,0,0,28,0,0,26,0,0,0,4,0,0,22,25,38,0,0,0,0,0,0,0,0,0,0],"split_type":[0,0,0,0,0,0,0,0,0,0,0,0,0,0,0,0,0,0,0,0,0,0,0,0,0,0,0,0,0,0,0,0,0,0,0,0,0,0,0],"sum_hessian":[3.991E3,2.292E3,1.699E3,6.21E2,1.671E3,1.495E3,2.04E2,6.9E1,5.52E2,1.072E3,5.99E2,2.6E2,1.235E3,1.6E1,1.88E2,7.2E1,1E3,8.2E1,5.17E2,1.92E2,6.8E1,6.3E1,1.172E3,5.13E2,4.87E2,4.4E1,1.48E2,5.8E2,5.92E2,3.68E2,1.45E2,2.42E2,2.45E2,2.9E1,1.19E2,3.52E2,2.28E2,7.3E1,5.19E2],"tree_param":{"num_deleted":"0","num_feature":"49","num_nodes":"39","size_leaf_vector":"1"}},{"base_weights":[-1.1350792E-2,3.2052213E-1,-3.2597173E-2,4.7568646E-1,-0E0,-2.0977985E-3,-1.3949289E-2,4.4893123E-2,-0E0,4.4334505E-2,-9.564931E-2,-1.8092293E-2,1.2833142E-1,-1.6286148E-1,4.6528462E-2,5.2314885E-2,-8.960198E-2,1.6976354E-1,-4.956085E-3,-1.9284102E-1,2.9030126E-3,-7.021043E-3,2.123184E-1,1.7854473E-2,-3.1755217E-3,-1.5486854E-2,5.6771655E-4,6.738931E-3,2.4486437E-2,-1.824008E-2,-6.4372714E-4,2.4100427E-2,-0E0],"categories":[],"categories_nodes":[],"categories_segments":[],"categories_sizes":[],"default_left":[0,0,0,0,0,0,0,0,0,0,0,0,0,0,0,0,0,0,0,0,0,0,0,0,0,0,0,0,0,0,0,0,0],"id":25,"left_children":[1,3,5,7,-1,9,-1,-1,-1,11,13,15,17,19,21,23,25,27,-1,29,-1,-1,31,-1,-1,-1,-1,-1,-1,-1,-1,-1,-1],"loss_changes":[2.6922674E1,1.1435284E1,1.7109318E1,8.051491E0,0E0,1.4101939E1,0E0,0E0,0E0,1.153864E1,1.1012202E1,6.1699286E0,8.075367E0,5.382181E0,8.595578E0,1.1293883E1,8.184015E0,7.847332E0,0E0,5.6912575E0,0E0,0E0,5.250765E0,0E0,0E0,0E0,0E0,0E0,0E0,0E0,0E0,0E0,0E0],"parents":[2147483647,0,0,1,1,2,2,3,3,5,5,9,9,10,10,11,11,12,12,13,13,14,14,15,15,16,16,17,17,19,19,22,22],"right_children":[2,4,6,8,-1,10,-1,-1,-1,12,14,16,18,20,22,24,26,28,-1,30,-1,-1,32,-1,-1,-1,-1,-1,-1,-1,-1,-1,-1],"split_conditions":[4.936083E2,1.3199893E-1,1E0,1.544053E0,-0E0,1.7932233E3,-1.3949289E-2,4.4893123E-2,-0E0,1.150655E1,1.5949578E0,1.0419962E0,1.6681528E0,3.5E1,1.1144745E0,6.574248E2,1.3969104E0,1.5684198E0,-4.956085E-3,1.5421108E0,2.9030126E-3,-7.021043E-3,1.9285331E3,1.7854473E-2,-3.1755217E-3,-1.5486854E-2,5.6771655E-4,6.738931E-3,2.4486437E-2,-1.824008E-2,-6.4372714E-4,2.4100427E-2,-0E0],"split_indices":[18,25,2,33,0,23,0,0,0,26,14,29,19,1,11,37,39,38,0,11,0,0,23,0,0,0,0,0,0,0,0,0,0],"split_type":[0,0,0,0,0,0,0,0,0,0,0,0,0,0,0,0,0,0,0,0,0,0,0,0,0,0,0,0,0,0,0,0,0],"sum_hessian":[3.977E3,2.19E2,3.758E3,1.45E2,7.4E1,3.176E3,5.82E2,1.07E2,3.8E1,2.094E3,1.082E3,1.175E3,9.19E2,7.55E2,3.27E2,5.62E2,6.13E2,7.78E2,1.41E2,6.77E2,7.8E1,1.64E2,1.63E2,1.99E2,3.63E2,2.9E2,3.23E2,5.52E2,2.26E2,5.02E2,1.75E2,1.13E2,5E1],"tree_param":{"num_deleted":"0","num_feature":"49","num_nodes":"33","size_leaf_vector":"1"}},{"base_weights":[-2.140835E-3,-6.686227E-2,1.0756347E-1,-2.0338918E-1,-4.137404E-2,-0E0,2.1225959E-1,1.1831748E-3,-2.9835775E-1,-1.0096872E-1,1.7718616E-3,-5.677339E-2,2.5023168E-1,2.8193928E-2,3.3309758E-1,-3.3750007E-1,3.2739646E-3,-2.3838454E-3,-1.3987329E-2,-6.4410575E-2,1.1033807E-1,-1.1739324E-1,1.057428E-1,-2.0875579E-2,5.4905903E-1,1.24229506E-1,-1.9422859E-2,5.578603E-1,1.7184813E-1,-2.7445152E-2,7.2456646E-4,8.509612E-2,-1.14552505E-1,2.2058806E-1,-9.773159E-2,2.1212744E-2,-2.0476693E-1,2.6790443E-1,-4.262805E-3,8.694301E-3,-2.5678432E-2,5.9601385E-2,7.744396E-4,-0E0,4.025253E-1,6.307761E-1,-0E0,3.528068E-1,-4.548318E-3,1.8432526E-2,-3.947098E-3,5.937831E-4,-1.2978824E-2,-0E0,2.5312485E-2,3.7241157E-2,-1.664814E-2,3.3934534E-2,-5.71894E-3,-2.0545354E-2,2.8303168E-3,3.0185174E-2,-4.6275943E-3,1.0602022E-2,-1.4266624E-2,4.1749448E-2,-0E0,-0E0,5.2051477E-2,-0E0,3.5615176E-2],"categories":[],"categories_nodes":[],"categories_segments":[],"categories_sizes":[],"default_left":[0,0,0,0,0,1,0,0,0,0,0,0,0,0,0,0,0,0,0,0,0,0,0,0,0,0,0,1,0,0,0,0,0,0,0,0,0,0,0,0,0,0,0,0,0,0,0,0,0,0,0,0,0,0,0,0,0,0,0,0,0,0,0,0,0,0,0,0,0,0,0],"id":26,"left_children":[1,3,5,7,9,11,13,-1,15,17,19,21,23,25,27,29,-1,-1,-1,31,33,35,37,39,41,43,-1,45,47,-1,-1,49,51,53,55,57,59,61,-1,-1,-1,-1,-1,63,65,67,-1,69,-1,-1,-1,-1,-1,-1,-1,-1,-1,-1,-1,-1,-1,-1,-1,-1,-1,-1,-1,-1,-1,-1,-1],"loss_changes":[2.793832E1,7.5919905E0,1.5645184E1,8.925913E0,5.993795E0,1.1135185E1,1.428199E1,0E0,5.0612183E0,4.7329073E0,9.020867E0,6.047093E0,1.4367004E1,8.3263645E0,1.1040138E1,4.671545E0,0E0,0E0,0E0,5.7451878E0,1.1984417E1,6.4146194E0,4.9736223E0,4.933444E0,7.150137E0,8.145948E0,0E0,6.627178E0,1.2816704E1,0E0,0E0,4.825202E0,5.097302E0,1.0523048E1,1.2264255E1,9.205639E0,6.560087E0,5.9209394E0,0E0,0E0,0E0,0E0,0E0,5.3262706E0,4.651251E0,8.0203705E0,0E0,9.038605E0,0E0,0E0,0E0,0E0,0E0,0E0,0E0,0E0,0E0,0E0,0E0,0E0,0E0,0E0,0E0,0E0,0E0,0E0,0E0,0E0,0E0,0E0,0E0],"parents":[2147483647,0,0,1,1,2,2,3,3,4,4,5,5,6,6,8,8,9,9,10,10,11,11,12,12,13,13,14,14,15,15,19,19,20,20,21,21,22,22,23,23,24,24,25,25,27,27,28,28,31,31,32,32,33,33,34,34,35,35,36,36,37,37,43,43,44,44,45,45,47,47],"right_children":[2,4,6,8,10,12,14,-1,16,18,20,22,24,26,28,30,-1,-1,-1,32,34,36,38,40,42,44,-1,46,48,-1,-1,50,52,54,56,58,60,62,-1,-1,-1,-1,-1,64,66,68,-1,70,-1,-1,-1,-1,-1,-1,-1,-1,-1,-1,-1,-1,-1,-1,-1,-1,-1,-1,-1,-1,-1,-1,-1],"split_conditions":[1.7853744E3,7.7488995E-1,1E0,5.18681E2,1.334146E0,1.47417555E1,2.156521E1,1.1831748E-3,2.8014988E1,2.3043331E1,1.3460205E1,1.4734267E-1,3.5465355E0,1E0,9.6579254E-1,6.533201E2,3.2739646E-3,-2.3838454E-3,-1.3987329E-2,1.0802195E0,1.1879538E1,8.9146215E-1,2.2E1,2.1244037E0,1.3011862E0,7.640939E2,-1.9422859E-2,1.5848958E1,1.8600198E3,-2.7445152E-2,7.2456646E-4,3.4336925E0,4.4374514E0,5.2084485E2,1.3533007E0,1.0201591E0,1.4284602E0,1.9437374E0,-4.262805E-3,8.694301E-3,-2.5678432E-2,5.9601385E-2,7.744396E-4,1.8861637E1,9.34969E-1,1.243729E0,-0E0,1.8064589E3,-4.548318E-3,1.8432526E-2,-3.947098E-3,5.937831E-4,-1.2978824E-2,-0E0,2.5312485E-2,3.7241157E-2,-1.664814E-2,3.3934534E-2,